\data\
ngram 1=5441
ngram 2=24220
ngram 3=37730

\1-grams:
-4.4224157	<unk>	0
0	<s>	-0.82435846
-1.5394039	</s>	0
-4.2938533	Konsa	-0.102676556
-3.1946332	tou,	-0.14666182
-2.0140836	sa	-0.6187266
-2.02916	nou	-0.39450705
-2.766421	wè	-0.20110644
-3.4077413	koulye	-0.3861119
-2.38213	a,	-0.35540724
-2.195325	se	-0.4007906
-2.524005	tankou	-0.24948083
-2.0427954	yon	-0.27601257
-4.2938533	pòtrè	-0.102676556
-3.4077413	nap	-0.1261286
-3.3245423	gade	-0.16731536
-2.6247194	jan	-0.44650257
-4.1084504	twoub	-0.102676556
-1.7625079	nan	-0.38200355
-4.2938533	glas.	-0.102676556
-4.2938533	Avantaj	-0.102676556
-4.2938533	baraj	-0.102676556
-4.2938533	Pelig	-0.102676556
-2.142449	la	-0.319233
-2.7770216	t	-0.35542706
-2.524005	ap	-0.28526944
-2.5361588	bay	-0.26080364
-3.3641527	peyizan	-0.14991918
-3.9911597	Latibonit	-0.102676556
-1.6137111	yo	-0.516498
-3.7336912	chans	-0.19363749
-1.7462126	pou	-0.48093498
-3.0325363	jwenn	-0.15705104
-3.1176648	dlo	-0.13669933
-3.073018	pandan	-0.1424978
-2.1602325	tout	-0.32773122
-3.9911597	sezon	-0.16386695
-2.6480024	an.	-1.5720801
-4.1084504	Kouman	-0.102676556
-2.147456	ou	-0.3635332
-2.929759	ka	-0.19371173
-3.6460435	aji	-0.13658059
-1.773012	ak	-0.27435708
-2.0330124	moun	-0.46714506
-2.6898165	si	-0.37966558
-2.0630486	te	-0.39402866
-3.8436186	pwason	-0.102676556
-3.9911597	lanmè,	-0.102676556
-4.2938533	koulèv	-0.102676556
-4.2938533	raje	-0.102676556
-1.8572254	ki	-0.48161346
-2.3216982	pa	-0.34435767
-2.4950304	gen	-0.28350228
-4.2938533	mèt?	-0.102676556
-4.2938533	Parabòl	-0.102676556
-4.1084504	ja	-0.23511535
-3.167433	lajan	-0.13673714
-2.3216982	an	-0.26381272
-3.8436186	Peyi	-0.16386695
-3.6460435	Wa	-0.1288143
-3.5731487	syèl	-0.3512067
-2.3997738	la,	-0.3344666
-2.787887	anba	-0.22680394
-3.0523055	tè	-0.31362087
-4.2938533	jaden.	-0.102676556
-4.2938533	Aprè	-0.102676556
-3.2236514	sa,	-0.20417333
-1.8756824	li	-0.4491023
-2.9613905	pale	-0.3149848
-2.7560735	avèk	-0.15164268
-2.0953176	sou	-0.31248733
-2.6026213	bò	-0.28490025
-4.1084504	gòch	-0.102676556
-2.1326046	yo,	-0.44530317
-3.7336912	di:	-0.102676556
-3.167433	wete	-0.20267266
-2.9781144	kò	-0.28743136
-3.1418364	mwen,	-0.24284206
-2.5615366	menm	-0.2708881
-4.2938533	madichon.	-0.102676556
-4.2938533	Epi	-0.102676556
-2.9147673	rete	-0.21229076
-3.0947678	konsa	-0.13834728
-2.6480024	gwo	-0.13247791
-4.1084504	lafimen	-0.102676556
-3.0136275	moute	-0.25911543
-2.8342907	sòti	-0.36227307
-2.2038424	a	-0.34914288
-2.5006728	k	-1.2374094
-3.0523055	leve	-0.22048329
-4.2938533	founo	-0.102676556
-3.9911597	dife.	-0.30883875
-3.8436186	Se	-0.10954556
-2.2125301	l	-0.33467045
-3.0947678	tounen	-0.22869581
-3.5107486	dènye	-0.17721209
-4.1084504	klas	-0.102676556
-3.4561982	esklav	-0.16731536
-2.929759	frè	-0.29200253
-2.0630486	yo.	-1.9696519
-3.8436186	Lè	-0.11154733
-2.4134934	wa	-0.36880565
-4.2938533	Akaz,	-0.102676556
-2.2753663	pitit	-0.37143216
-3.2547483	gason	-0.12797359
-4.1084504	Jotam,	-0.102676556
-4.2938533	Ozyas,	-0.102676556
-3.7336912	gouvène	-0.102676556
-2.5361588	peyi	-0.33711386
-4.2938533	Jida.	-0.102676556
-2.9955082	sèvi	-0.27184153
-2.3254757	m	-0.32692945
-4.2938533	ranpa,	-0.102676556
-4.2938533	delivrans	-0.102676556
-3.7336912	pwoteksyon	-0.15091968
-3.5731487	zèl	-0.15662643
-2.255543	mwen	-0.3784305
-4.1084504	kache.	-0.23511535
-4.2938533	Dirijan	-0.102676556
-3.3641527	politik	-0.13930158
-3.5731487	lavalas	-0.17335714
-2.945287	bon	-0.20106927
-4.2938533	koutye	-0.102676556
-3.9911597	malfektè	-0.30883875
-4.1084504	ipokrit	-0.102676556
-4.1084504	entènasyonal	-0.1863423
-4.1084504	rezoud	-0.102676556
-4.1084504	kriz	-0.102676556
-3.9911597	Dayiti	-0.102676556
-3.6460435	ke	-0.102676556
-3.073018	òganizasyon	-0.21162993
-3.9911597	Nasyonzini	-0.1863423
-3.6460435	Leta	-0.1424978
-4.1084504	Ameriken	-0.23511535
-3.8436186	kreye	-0.102676556
-2.6480024	li.	-1.5720801
-4.2938533	Antan	-0.102676556
-2.84671	n	-0.5214715
-3.1176648	viv	-0.29921675
-3.8436186	mitan	-0.119925745
-2.595498	lòt	-0.2377367
-3.8436186	nasyon	-0.1545797
-3.1418364	p	-0.77066433
-3.2882447	janm	-0.15620351
-3.0325363	kè	-0.21069933
-4.2938533	poze,	-0.102676556
-3.4561982	sèl	-0.13442202
-4.1084504	kote.	-0.23511535
-4.1084504	Tout	-0.11929777
-4.1084504	machandiz	-0.102676556
-2.8726678	travay	-0.25716045
-3.7336912	disparèt	-0.102676556
-2.6172276	ansanm	-0.7622814
-3.0325363	avè	-0.45041132
-4.1084504	lanmè.	-0.23511535
-3.7336912	Mwen	-0.12213092
-3.1418364	konsa,	-0.16981982
-3.2547483	nonm	-0.1867786
-3.073018	bèl	-0.16544627
-3.1418364	rad	-0.15305093
-2.5748043	byen	-0.16384049
-3.4561982	klere	-0.1261286
-3.0523055	kanpe	-0.22198543
-2.6642482	devan	-0.26996017
-3.1946332	mwen.	-1.0358375
-4.1084504	Joab	-0.102676556
-3.3245423	menm,	-0.15065102
-4.2938533	Sewouya	-0.102676556
-3.2236514	sòlda	-0.1860014
-3.073018	David	-0.22333342
-2.8104696	kite	-0.21418275
-2.4950304	lavil	-0.20628117
-4.1084504	Ebwon,	-0.102676556
-3.2236514	pati	-0.17672461
-3.1176648	tou.	-1.1104711
-4.2938533	Madichon	-0.102676556
-3.3641527	nenpòt	-0.24742948
-2.8862524	va	-0.20254904
-2.698685	mete	-0.2884651
-2.9613905	manje	-0.15192102
-3.3245423	bouch	-0.13930158
-3.3245423	jòdi	-0.45594206
-3.3245423	anvan	-0.17637673
-2.5486624	pran	-0.2362445
-3.8436186	revanj	-0.102676556
-3.6460435	lènmi	-0.1288143
-4.2938533	Sitou	-0.102676556
-3.9911597	mawon	-0.102676556
-2.6811254	jou	-0.2886933
-3.9911597	vandredi	-0.1863423
-3.6460435	11	-0.1424978
-3.8436186	avril	-0.16386695
-3.7336912	1997	-0.1288143
-4.2938533	Gwomòn.	-0.102676556
-3.9911597	Nan	-0.108146615
-3.5731487	rale	-0.13219497
-2.2926064	fè	-0.3570668
-3.0947678	mèt	-0.115548804
-3.4561982	pat	-0.102676556
-3.7336912	manke	-0.102676556
-4.1084504	mach	-0.102676556
-4.1084504	jesyon	-0.102676556
-2.766421	y	-1.080807
-4.2938533	jistis.	-0.102676556
-4.2938533	Lèfini,	-0.102676556
-3.1946332	pote	-0.1863473
-2.6560493	tèt	-0.32522425
-3.9911597	Orèb	-0.102676556
-4.2938533	Zeyèb	-0.102676556
-4.2938533	Jedeyon	-0.102676556
-3.6460435	solèy	-0.16386695
-3.4561982	larivyè	-0.20207748
-4.2938533	Jouden	-0.102676556
-4.2938533	Paske,	-0.102676556
-3.4077413	kache	-0.1424978
-2.5300393	di	-0.36708304
-4.2938533	sa:	-0.102676556
-2.3778288	Bondye	-0.3554512
-2.9781144	kapab	-0.1859027
-3.073018	wòch	-0.18192281
-4.2938533	Abraram.	-0.102676556
-4.2938533	Tankou	-0.102676556
-4.2938533	kanna	-0.102676556
-3.4561982	oswa	-0.1288143
-4.2938533	lapen	-0.102676556
-2.5748043	pase	-0.24501759
-3.5731487	twò	-0.14630568
-4.1084504	òdinè	-0.102676556
-4.2938533	nam	-0.102676556
-4.1084504	sikonstans	-0.23511535
-3.6460435	konsa.	-0.60986876
-3.8436186	Salomon	-0.16386695
-4.2938533	4000	-0.102676556
-2.8342907	kay	-0.17112046
-2.4574623	kote	-0.33748263
-3.4077413	chwal	-0.14630568
-3.4077413	cha	-0.41548625
-4.1084504	lagè,	-0.102676556
-4.2938533	12000	-0.102676556
-4.1084504	kavalye	-0.102676556
-4.2938533	Jwif	-0.102676556
-4.2938533	Bere	-0.102676556
-2.7560735	pi	-0.26516667
-4.2938533	santiman	-0.102676556
-4.2938533	Tesalonik	-0.102676556
-3.5731487	yo:	-0.102676556
-3.167433	resevwa	-0.16302311
-2.900276	pawòl	-0.27002904
-4.1084504	vit	-0.102676556
-2.595498	san	-0.18418278
-4.1084504	traka.	-0.23511535
-2.7770216	bagay	-0.2457497
-2.9613905	osinon	-0.18005489
-2.8222167	de	-0.17486764
-3.6460435	jou,	-0.12394351
-2.5063894	paske	-0.404675
-2.84671	anpil	-0.13732068
-4.1084504	koupab	-0.102676556
-3.6460435	zafè	-0.15493883
-2.369352	a.	-1.6665587
-4.1084504	Ki	-0.13219497
-4.2938533	ponkò	-0.102676556
-3.6460435	kab	-0.20364155
-4.2938533	vrè	-0.102676556
-4.2938533	solisyon.	-0.102676556
-4.2938533	Depi	-0.102676556
-3.2547483	je	-0.13498066
-3.9911597	louvri,	-0.102676556
-3.5731487	zòrèy	-0.102676556
-3.3641527	pare	-0.30839667
-3.1176648	tande	-0.1540701
-4.2938533	lapriyèy	-0.102676556
-3.2882447	isit	-0.3806333
-2.3952951	la.	-1.8229436
-3.6460435	bri	-0.1424978
-3.0947678	bèt	-0.29938042
-3.5731487	bat	-0.14577994
-3.9911597	wou	-0.102676556
-3.0523055	ta	-0.20725887
-4.1084504	foul	-0.23511535
-4.2938533	rele.	-0.102676556
-4.2938533	Etan	-0.102676556
-3.6460435	lwen	-0.102676556
-2.84671	ba	-0.5552101
-2.6811254	w	-0.26619864
-4.2938533	nèj	-0.102676556
-3.8436186	ret	-0.102676556
-4.2938533	kouwi	-0.102676556
-2.8862524	l.	-1.3368675
-4.2938533	Priye	-0.102676556
-3.9911597	reyinyon	-0.1863423
-4.1084504	jan,	-0.102676556
-2.9781144	daprè	-0.23447599
-3.167433	ekri	-0.19674107
-4.2938533	Liv	-0.102676556
-3.3245423	ranmase	-0.13040194
-3.073018	plis	-0.3299196
-4.2938533	twòp.	-0.102676556
-3.7336912	Yo	-0.112067945
-3.9911597	travèse	-0.102676556
-3.2547483	zòn	-0.16041131
-4.2938533	Negèv	-0.102676556
-2.787887	rive	-0.17747962
-3.9911597	Ebwon	-0.102676556
-4.2938533	Ayiman	-0.102676556
-4.2938533	Chechayi	-0.102676556
-4.2938533	Talmayi	-0.102676556
-3.8436186	rete.	-0.43377748
-3.8436186	remoute	-0.24742948
-3.0325363	tan	-0.1642555
-2.4950304	Seyè	-1.011237
-3.1176648	Moyiz	-0.17453924
-3.1946332	mòn	-0.18246059
-4.1084504	Sinayi	-0.102676556
-2.640102	men	-0.24620888
-2.945287	fanmi	-0.18680233
-3.5731487	Arawon	-0.23740938
-4.2938533	Moyiz.	-0.102676556
-3.5107486	renmèt	-0.16386695
-2.7077384	chèf	-0.27122703
-3.8436186	gad	-0.1424978
-3.8436186	pòs	-0.102676556
-3.3641527	pòtay	-0.15573744
-3.7336912	vre	-0.102676556
-3.8436186	wi,	-0.102676556
-3.3245423	vire	-0.35089296
-3.7336912	do	-0.120603085
-2.929759	pral	-0.1776373
-3.167433	mouri,	-0.21786642
-3.4561982	wap	-0.16115387
-3.4561982	fini	-0.2557545
-3.3641527	nèt	-0.21810742
-3.1418364	kenbe	-0.20938069
-2.9781144	ou.	-1.2466909
-4.1084504	Nou	-0.102676556
-3.7336912	kontinye	-0.102676556
-3.5107486	vye	-0.23694962
-4.1084504	konsepsyon	-0.102676556
-4.1084504	objektif	-0.102676556
-2.9955082	chak	-0.16681302
-4.2938533	Wi,	-0.102676556
-3.4561982	poutèt	-0.17369811
-3.073018	tonbe	-0.33642542
-4.1084504	ajenou	-0.1863423
-3.7336912	Papa	-0.21436185
-3.5107486	latè	-0.1721089
-2.9955082	non	-0.15726548
-3.7336912	kòmanse,	-0.102676556
-2.9781144	aprè	-0.14529787
-3.5731487	ansyen	-0.13658059
-3.8436186	minis	-0.102676556
-2.7990315	mande	-0.24230623
-3.9911597	lakou	-0.15091968
-4.2938533	dè	-0.102676556
-3.0325363	kont	-0.14080225
-4.2938533	dechaj	-0.102676556
-3.9911597	vant	-0.102676556
-3.1946332	manman	-0.13842767
-2.8726678	l,	-0.3031509
-3.7336912	Jakòb,	-0.21436185
-3.1176648	zansèt	-0.4332235
-3.4077413	goumen	-0.2981095
-3.9911597	Ezaou,	-0.102676556
-4.2938533	jimo	-0.102676556
-4.2938533	Daprè	-0.102676556
-3.9911597	enfòmasyon	-0.102676556
-4.2938533	disponib,	-0.102676556
-3.7336912	100	-0.102676556
-3.3641527	10	-0.14630568
-4.1084504	chawzi	-0.102676556
-2.8222167	al	-0.23837847
-3.9911597	vote.	-0.30883875
-4.2938533	Pandan	-0.102676556
-2.9955082	Jezi	-0.21536565
-2.640102	vin	-0.19814242
-3.4561982	benediksyon	-0.22020236
-4.2938533	tout.	-0.102676556
-4.2938533	Matiren	-0.102676556
-4.1084504	reklame	-0.102676556
-4.2938533	echantiyon	-0.102676556
-4.2938533	pwodui	-0.102676556
-4.2938533	dominikèn	-0.102676556
-4.2938533	diri	-0.102676556
-2.7459664	ti	-0.13467777
-3.7336912	fig	-0.19363749
-4.2938533	bannann.	-0.102676556
-3.8436186	kouman	-0.16386695
-3.1176648	rele	-0.13988708
-3.5107486	yo?	-0.7348075
-4.2938533	Poutèt	-0.102676556
-3.8436186	mechanste	-0.16386695
-3.2547483	kòmanse	-0.13093174
-3.3641527	batay	-0.3061282
-3.4077413	Izrayèl	-0.25305232
-3.7336912	mouri.	-0.5306875
-4.2938533	Foul	-0.102676556
-2.8726678	depi	-0.20544429
-4.2938533	Pas	-0.102676556
-4.2938533	Amat	-0.102676556
-3.9911597	nò	-0.16386695
-2.7770216	jouk	-0.2126263
-3.8436186	fwontyè	-0.15091968
-3.9911597	Lejip	-0.120603085
-4.1084504	sid,	-0.102676556
-4.1084504	fete	-0.102676556
-4.1084504	Si	-0.11368639
-3.7336912	desizyon	-0.102676556
-3.7336912	movèz	-0.21436185
-4.1084504	desizyon,	-0.102676556
-4.1084504	konsekans	-0.102676556
-3.8436186	vonmi	-0.16386695
-4.1084504	Sa	-0.102676556
-3.6460435	lakòz	-0.14577994
-3.3245423	pwoblèm	-0.15884148
-4.1084504	lavichè,	-0.102676556
-4.2938533	chomay,	-0.102676556
-3.6460435	grangou,	-0.102676556
-4.1084504	sante	-0.23511535
-4.2938533	edikasyon	-0.102676556
-3.8436186	ann	-0.102676556
-4.2938533	ayiti.	-0.102676556
-4.2938533	Sèten	-0.102676556
-3.6460435	jounalis	-0.1424978
-4.2938533	rapwoche	-0.102676556
-4.2938533	enfòme	-0.102676556
-4.1084504	andedan	-0.102676556
-3.8436186	komisarya	-0.102676556
-3.7336912	Jakmèl	-0.22019088
-4.2938533	Achoub	-0.102676556
-4.1084504	Azrikam,	-0.102676556
-4.2938533	Azrikam	-0.102676556
-4.1084504	Achabya,	-0.102676556
-3.0325363	branch	-0.380733
-3.9911597	Merari	-0.102676556
-3.7336912	lonje	-0.29354307
-4.1084504	bite,	-0.102676556
-3.2882447	chache	-0.13442202
-4.1084504	tonbe.	-0.23511535
-4.1084504	Dezyèm	-0.102676556
-2.6480024	tou	-0.2838279
-4.2938533	Netanèl,	-0.102676556
-4.2938533	Izaka	-0.102676556
-4.2938533	Fòk	-0.102676556
-2.8726678	fèt	-0.3529493
-4.2938533	tolerans,	-0.102676556
-4.2938533	transparans,	-0.102676556
-3.7336912	respè	-0.1288143
-3.7336912	règ	-0.15091968
-4.2938533	jwèt	-0.102676556
-3.9911597	kwòk	-0.102676556
-4.2938533	anjanm	-0.102676556
-4.1084504	Te	-0.1863423
-2.929759	kèk	-0.13667624
-3.7336912	farizyen	-0.15091968
-3.9911597	konsa:	-0.102676556
-3.9911597	Poukisa	-0.1288143
-3.0947678	lalwa	-0.17055814
-3.6460435	pèmèt	-0.1288143
-3.9911597	repo	-0.102676556
-3.4077413	?	-0.8317175
-4.2938533	dezabiye	-0.102676556
-3.7336912	koulè	-0.15091968
-3.6460435	wouj	-0.102676556
-4.1084504	vyolèt	-0.102676556
-3.9911597	Jozafa	-0.102676556
-3.8436186	antere	-0.17335714
-3.9911597	Lavil	-0.102676556
-3.2882447	David,	-0.24268994
-3.8436186	Moun	-0.115548804
-3.9911597	bouk	-0.102676556
-4.1084504	vwazinaj	-0.102676556
-3.9911597	Jerizalèm.	-0.30883875
-3.8436186	Chèf	-0.102676556
-3.1418364	prèt	-0.3132482
-3.9911597	dirèktè	-0.1863423
-3.1946332	tap	-0.1773312
-4.2938533	riz	-0.102676556
-3.0947678	touye	-0.1843669
-3.3245423	Jezi,	-0.20207748
-3.6460435	pè	-0.102676556
-2.6247194	pèp	-0.58914274
-3.4077413	Abraram	-0.16731536
-4.1084504	Sara	-0.102676556
-3.9911597	Izarak.	-0.30883875
-4.2938533	Tanpri,	-0.102676556
-3.7336912	fòse	-0.102676556
-3.2236514	moutre	-0.20089023
-4.2938533	sevè	-0.102676556
-2.4373693	lè	-0.3820415
-3.2547483	ma	-0.102676556
-2.945287	lakay	-0.18154572
-2.900276	nou.	-1.3230792
-3.8436186	swaf	-0.16386695
-3.8436186	dlo,	-0.102676556
-3.3245423	bwè	-0.20082758
-4.1084504	gratis	-0.102676556
-3.8436186	sous	-0.102676556
-3.0523055	lavi	-0.16386698
-3.7336912	lendi	-0.102676556
-4.2938533	13	-0.102676556
-4.2938533	janvye	-0.102676556
-4.1084504	prezante	-0.102676556
-3.9911597	Premye	-0.102676556
-4.2938533	Bilan	-0.102676556
-4.2938533	Aktivite	-0.102676556
-3.5731487	Gouvènman	-0.20364155
-4.1084504	Men	-0.10857026
-4.2938533	Chemaja	-0.102676556
-4.2938533	Otni,	-0.102676556
-4.2938533	Rafayèl,	-0.102676556
-4.2938533	Obèd,	-0.102676556
-4.2938533	Elzabad,	-0.102676556
-4.2938533	Eliyou	-0.102676556
-4.2938533	Semakya.	-0.102676556
-4.1084504	nepe	-0.102676556
-4.2938533	zèklè,	-0.102676556
-3.4077413	moun.	-0.8317175
-4.2938533	Responsablite	-0.102676556
-4.2938533	Sitwayen	-0.102676556
-4.1084504	sosyete	-0.102676556
-4.1084504	sivil	-0.102676556
-3.8436186	Ou	-0.102676556
-3.2547483	lage	-0.20362602
-3.7336912	vle.	-0.5306875
-4.2938533	Madi	-0.102676556
-3.4561982	15	-0.102676556
-3.2547483	popilasyon	-0.3615821
-4.1084504	Bwa	-0.102676556
-4.2938533	Pini	-0.102676556
-3.7336912	Obòy	-0.15091968
-3.5731487	poze	-0.13219497
-4.2938533	lapat	-0.102676556
-3.7336912	vòlè	-0.15091968
-3.2882447	bèf	-0.16485174
-4.1084504	Mirabo	-0.102676556
-3.9911597	Jozèf.	-0.30883875
-4.2938533	Sitèlman	-0.102676556
-3.7336912	cho	-0.15091968
-3.1418364	dèyè	-0.13352501
-3.4077413	mesye	-0.18148333
-4.1084504	avili	-0.23511535
-2.8342907	li,	-0.2580311
-3.2547483	sèvis	-0.14080225
-3.1946332	zidòl	-0.243588
-3.9911597	Lasiri	-0.1424978
-4.2938533	Egzamine	-0.102676556
-3.9911597	Jòb	-0.102676556
-3.6460435	tire	-0.1863423
-4.2938533	osò	-0.102676556
-3.3245423	chwazi	-0.18211402
-3.5731487	regle	-0.13658059
-4.1084504	Gibeya	-0.102676556
-2.929759	lòd	-0.26542774
-3.2882447	disip	-0.52043074
-2.9955082	chita	-0.2910014
-3.6460435	atè	-0.13658059
-3.7336912	zèb	-0.1424978
-3.0325363	gwoup	-0.19417158
-4.2938533	isit,	-0.102676556
-4.2938533	Konsa,	-0.102676556
-3.167433	pap	-0.17018516
-3.2547483	pèdi	-0.15888427
-2.8104696	nou,	-0.26375452
-2.9955082	ban	-0.5771664
-3.1418364	swiv	-0.1758229
-3.4561982	pwòp	-0.16731536
-3.2882447	lide	-0.17105463
-4.1084504	dezi	-0.102676556
-3.9911597	chèche	-0.102676556
-2.8726678	e	-0.20796794
-3.6460435	monte	-0.102676556
-3.6460435	desann	-0.102676556
-3.5731487	plas	-0.1261286
-4.1084504	in	-0.23511535
-3.8436186	èd	-0.102676556
-3.9911597	tan.	-0.30883875
-4.2938533	Ba	-0.102676556
-4.2938533	merite,	-0.102676556
-3.073018	ya	-0.16350472
-3.5731487	favè	-0.17941746
-3.2882447	Bondye.	-0.9456608
-4.1084504	Yon	-0.11154733
-4.2938533	Izmayèl,	-0.102676556
-4.2938533	Aga,	-0.102676556
-3.0947678	fanm	-0.246406
-2.8222167	lan	-0.20458116
-3.5731487	jwe	-0.17721209
-3.9911597	Izarak,	-0.1863423
-4.2938533	Batcheba,	-0.102676556
-3.7336912	fi	-0.11486173
-4.2938533	Amiyel	-0.102676556
-4.2938533	fe	-0.102676556
-3.4077413	kat	-0.14577994
-4.1084504	li:	-0.102676556
-4.2938533	Chimea,	-0.102676556
-4.2938533	Chabab,	-0.102676556
-4.1084504	Natan	-0.102676556
-4.1084504	Salomon.	-0.23511535
-4.1084504	tyè	-0.23511535
-3.9911597	lalin	-0.102676556
-3.9911597	nan,	-0.102676556
-3.7336912	zetwal	-0.1424978
-4.2938533	domaje.	-0.102676556
-4.2938533	Gedalya,	-0.102676556
-4.2938533	Akikam,	-0.102676556
-4.1084504	Chafan,	-0.102676556
-4.2938533	danje.	-0.102676556
-3.1176648	èske	-0.25473303
-2.9613905	ankò	-0.14133698
-3.8436186	Benjamen	-0.17335714
-3.3641527	a?	-0.8731102
-4.2938533	Foto	-0.102676556
-4.2938533	Rankont	-0.102676556
-3.3245423	manm	-0.18259983
-3.6460435	Asanble	-0.23694962
-3.9911597	popilè	-0.13219497
-3.8436186	nasyonal	-0.102676556
-3.9911597	delegasyon	-0.102676556
-4.2938533	Amasya	-0.102676556
-3.0947678	fin	-0.14030145
-3.167433	otorite	-0.12802204
-3.2547483	lame	-0.22167085
-2.6642482	epi	-0.35042158
-3.073018	papa	-0.14609987
-4.1084504	rich,	-0.102676556
-4.1084504	pwodiksyon	-0.102676556
-4.2938533	kafe,	-0.102676556
-4.2938533	kakawo	-0.102676556
-4.2938533	preparasyon	-0.102676556
-3.0947678	kap	-0.17162938
-4.2938533	Benèt	-0.102676556
-4.2938533	retounen.	-0.102676556
-3.7336912	dezòd	-0.102676556
-3.073018	madanm	-0.2443366
-3.7336912	bon.	-0.5306875
-4.2938533	E	-0.102676556
-3.4561982	okenn	-0.1261286
-3.5731487	makout	-0.102676556
-3.9911597	rantre	-0.1863423
-3.7336912	koze	-0.102676556
-3.2236514	mal	-0.15714036
-3.9911597	Obòy.	-0.30883875
-3.3641527	deja	-0.13219497
-3.2882447	moun,	-0.16115387
-4.1084504	jwif,	-0.102676556
-2.9955082	pouvwa	-0.17981467
-3.2547483	peche	-0.15573744
-3.0325363	zanj	-0.28889388
-3.2882447	touprè	-0.13658059
-3.1176648	lotèl	-0.26768792
-3.7336912	lansan	-0.102676556
-3.8436186	swa	-0.102676556
-3.4077413	lò	-0.13658059
-4.1084504	resi	-0.102676556
-4.2938533	Efèz	-0.102676556
-4.2938533	ase,	-0.102676556
-4.1084504	pwovens	-0.102676556
-4.2938533	Lazi	-0.102676556
-3.7336912	fèk	-0.1424978
-3.5107486	plante	-0.15493883
-3.3641527	jaden	-0.1779362
-3.4561982	rezen	-0.11631803
-3.8436186	poko	-0.102676556
-3.6460435	rekòt	-0.102676556
-4.2938533	menm?	-0.102676556
-4.2938533	avèg,	-0.102676556
-4.1084504	bwete,	-0.102676556
-4.2938533	ansent,	-0.102676556
-4.2938533	tranche,	-0.102676556
-3.9911597	ansanm.	-0.30883875
-4.2938533	krentif	-0.102676556
-4.2938533	Jeriko	-0.102676556
-3.7336912	rebati	-0.17941746
-3.2547483	pòsyon	-0.24652632
-4.1084504	Elyachib,	-0.102676556
-3.3245423	gran	-0.1545797
-3.167433	lap	-0.16270214
-2.9613905	toujou	-0.20409589
-4.1084504	demanti	-0.102676556
-4.2938533	plantè	-0.102676556
-4.2938533	Nòdès,	-0.102676556
-4.2938533	Koperativ	-0.102676556
-4.2938533	Tousen	-0.102676556
-4.2938533	Louvèti	-0.102676556
-3.8436186	elatriye.	-0.43377748
-2.9781144	lan,	-0.24732208
-3.7336912	Izarak	-0.15091968
-3.8436186	Jakòb	-0.102676556
-3.2882447	parèt	-0.22541228
-4.2938533	Kaynan	-0.102676556
-4.2938533	Enòs,	-0.102676556
-4.2938533	Enòs	-0.102676556
-4.2938533	Sèt,	-0.102676556
-4.2938533	Sèt	-0.102676556
-4.1084504	Adan,	-0.102676556
-3.9911597	Adan	-0.102676556
-4.2938533	Desizyon	-0.102676556
-4.1084504	dekwa	-0.102676556
-4.2938533	Palman	-0.102676556
-3.6460435	vote	-0.13658059
-3.6460435	lwa	-0.16904986
-4.2938533	entèpretasyon	-0.102676556
-4.2938533	vann?	-0.102676556
-3.3641527	12	-0.1424978
-3.9911597	Cherebya,	-0.102676556
-4.1084504	Achabya	-0.102676556
-3.9911597	dis	-0.102676556
-4.1084504	prèt.	-0.23511535
-4.2938533	Piga	-0.102676556
-3.7336912	grès	-0.102676556
-3.5731487	bèf,	-0.102676556
-3.6460435	kabrit	-0.19363749
-4.2938533	mouton.	-0.102676556
-3.3641527	responsab	-0.12739871
-3.5107486	chante	-0.15493883
-3.2882447	Tanp	-0.5084111
-3.9911597	enstale	-0.102676556
-3.6460435	Bwat	-0.49046752
-4.1084504	Kontra	-0.102676556
-2.9781144	ladan	-0.5366212
-4.2938533	peche,	-0.102676556
-3.6460435	Satan	-0.1424978
-3.7336912	ye,	-0.15091968
-4.2938533	konmansman.	-0.102676556
-4.1084504	Li	-0.102676556
-4.1084504	bo	-0.102676556
-3.1176648	ofri	-0.31151834
-4.2938533	mèsi.	-0.102676556
-4.2938533	Fris	-0.102676556
-4.1084504	Lonchan	-0.102676556
-3.9911597	Patrik	-0.1863423
-3.7336912	Eli	-0.102676556
-3.2882447	bezwen	-0.11368639
-4.2938533	tretman	-0.102676556
-4.2938533	doktè,	-0.102676556
-3.8436186	men,	-0.102676556
-4.2938533	refize.	-0.102676556
-3.9911597	traka	-0.102676556
-3.5731487	anvi	-0.16386695
-3.9911597	lajan,	-0.102676556
-4.1084504	toufe	-0.102676556
-3.4077413	kifè	-0.18592276
-3.2547483	anyen	-0.16953154
-3.9911597	menm.	-0.30883875
-3.7336912	Pa	-0.11929777
-4.2938533	lèy	-0.102676556
-3.1176648	jwif	-0.42364374
-3.8436186	chape	-0.102676556
-3.5107486	figi	-0.16988216
-4.2938533	fennen	-0.102676556
-3.8436186	zam	-0.102676556
-4.1084504	baton.	-0.23511535
-3.5731487	separe	-0.1261286
-3.8436186	douz	-0.16386695
-4.2938533	chak.	-0.102676556
-4.2938533	Souz,	-0.102676556
-4.1084504	kapital	-0.1863423
-4.2938533	Madoche.	-0.102676556
-4.1084504	plent	-0.102676556
-3.8436186	ameriken,	-0.102676556
-3.9911597	sitwayen	-0.102676556
-4.2938533	enstans	-0.102676556
-4.2938533	Paske	-0.102676556
-4.1084504	kwè,	-0.102676556
-3.6460435	rakonte	-0.102676556
-4.2938533	Menm	-0.102676556
-3.1418364	nèg	-0.15890846
-4.1084504	kouraj,	-0.102676556
-4.2938533	250	-0.102676556
-4.2938533	bit	-0.102676556
-4.2938533	patat.	-0.102676556
-3.9911597	bourik	-0.102676556
-3.2236514	koute	-0.17637673
-4.2938533	80	-0.102676556
-3.167433	pyès	-0.27570847
-3.9911597	ajan,	-0.102676556
-4.2938533	demi	-0.102676556
-3.2547483	liv	-0.14495791
-4.2938533	kaka	-0.102676556
-4.1084504	pijon	-0.102676556
-3.9911597	5	-0.102676556
-3.9911597	ajan.	-0.30883875
-3.5107486	refize	-0.1288143
-3.5731487	obeyi	-0.15091968
-4.2938533	tabli.	-0.102676556
-3.4077413	konfyans	-0.17385727
-4.1084504	konnen,	-0.102676556
-3.1946332	ant	-0.15573744
-4.1084504	Fanmi	-0.23511535
-3.8436186	Lavalas	-0.15091968
-4.2938533	Pati	-0.102676556
-4.1084504	Louvri	-0.102676556
-4.2938533	Baryè.	-0.102676556
-3.5107486	sak	-0.15662643
-3.2547483	fè,	-0.17178595
-3.7336912	ankòlè	-0.102676556
-3.8436186	sèmante	-0.102676556
-2.929759	pye	-0.18009219
-3.3641527	vini	-0.11816967
-4.2938533	Bouz,	-0.102676556
-4.2938533	Kemwèl,	-0.102676556
-4.2938533	Aram,	-0.102676556
-4.2938533	Kesèd,	-0.102676556
-4.2938533	Azò,	-0.102676556
-4.2938533	Pildach,	-0.102676556
-4.2938533	Jidlaf	-0.102676556
-4.2938533	Betwèl.	-0.102676556
-4.1084504	Jezila	-0.23511535
-3.1418364	move	-0.18168753
-3.8436186	nwit	-0.102676556
-4.1084504	lafyèv	-0.102676556
-3.0136275	,	-0.16002113
-4.2938533	vonmisman	-0.102676556
-4.2938533	maltèt	-0.102676556
-3.8436186	konte	-0.102676556
-4.2938533	kèplen	-0.102676556
-2.9613905	.	-1.2630813
-4.2938533	Jilyo	-0.102676556
-4.2938533	Apolon,	-0.102676556
-4.1084504	akize	-0.102676556
-3.3641527	jij	-0.12213092
-4.2938533	denstriksyon	-0.102676556
-4.1084504	tribinal	-0.102676556
-4.1084504	Aken	-0.102676556
-3.7336912	arete	-0.102676556
-4.1084504	Meyiz	-0.102676556
-4.2938533	ranswa	-0.102676556
-3.8436186	8	-0.102676556
-3.3641527	mwa	-0.13658059
-4.2938533	prizon.	-0.102676556
-4.2938533	Mande	-0.102676556
-4.2938533	vizitè	-0.102676556
-3.9911597	rezon	-0.102676556
-3.7336912	asiste	-0.15091968
-3.0325363	legliz	-0.30188796
-3.6460435	plan	-0.102676556
-3.9911597	Pilat	-0.102676556
-3.0325363	antre	-0.36834553
-3.7336912	palè	-0.1424978
-4.1084504	ye?	-0.23511535
-3.9911597	batiman	-0.102676556
-2.766421	an,	-0.23405623
-3.8436186	lokal	-0.16386695
-3.6460435	misyon	-0.1424978
-2.8726678	2	-0.14481658
-4.2938533	paralèl	-0.102676556
-4.2938533	nivo	-0.102676556
-4.2938533	Tandiske	-0.102676556
-3.5731487	prese	-0.13219497
-4.2938533	deboukle	-0.102676556
-3.6460435	kase	-0.16386695
-3.2547483	tanp	-0.32174087
-3.8436186	bagay,	-0.102676556
-3.5107486	anonse	-0.15493883
-3.4561982	bòn	-0.78596
-3.5731487	nouvèl	-0.17335714
-4.2938533	sinagòg	-0.102676556
-3.8436186	sal	-0.102676556
-3.4561982	tab	-0.1288143
-3.6460435	òganize	-0.12394351
-3.5731487	atake	-0.13930158
-3.1946332	vle	-0.16060214
-4.1084504	mal.	-0.23511535
-4.2938533	Pès	-0.102676556
-4.2938533	Medi	-0.102676556
-3.6460435	chanje	-0.102676556
-4.1084504	mèt,	-0.102676556
-3.5731487	konsèy	-0.102676556
-3.5731487	kòmandman	-0.14630568
-4.2938533	pòtay,	-0.102676556
-4.2938533	kite.	-0.102676556
-4.2938533	anmè	-0.102676556
-3.9911597	madichon	-0.102676556
-4.2938533	anfle,	-0.102676556
-3.9911597	pitit.	-0.30883875
-4.2938533	Chache	-0.102676556
-3.1418364	m,	-0.16270214
-3.7336912	parèy	-0.15662643
-3.9911597	libète	-0.102676556
-4.2938533	Tete	-0.102676556
-4.2938533	doubout	-0.102676556
-4.2938533	gazèl,	-0.102676556
-4.2938533	gazèl	-0.102676556
-4.1084504	fòs,	-0.102676556
-3.9911597	pòte	-0.102676556
-4.2938533	flè.	-0.102676556
-3.3641527	mare	-0.12213092
-4.1084504	anpi	-0.102676556
-3.8436186	mwayen	-0.16386695
-3.9911597	plenyen	-0.1863423
-4.1084504	sa?	-0.23511535
-4.2938533	Kèk	-0.102676556
-3.4077413	apre	-0.16988216
-3.9911597	Moab	-0.13658059
-4.1084504	Amon	-0.23511535
-4.2938533	Mawon	-0.102676556
-4.1084504	Jozafa.	-0.23511535
-4.2938533	Gen	-0.102676556
-3.1418364	Bondye,	-0.16558772
-3.9911597	tout,	-0.102676556
-4.1084504	domine	-0.23511535
-4.2938533	Lonje	-0.102676556
-4.2938533	gerizon,	-0.102676556
-3.8436186	mirak	-0.15091968
-3.4561982	sèvitè	-0.20293523
-4.2938533	Izayi,	-0.102676556
-3.9911597	Izayi	-0.1863423
-4.2938533	Jobèd,	-0.102676556
-4.2938533	Jobèd	-0.102676556
-4.2938533	Booz,	-0.102676556
-4.2938533	Booz	-0.102676556
-4.2938533	Sala,	-0.102676556
-4.2938533	Sala	-0.102676556
-4.2938533	Naason.	-0.102676556
-4.2938533	douzan,	-0.102676556
-3.8436186	senk	-0.16386695
-3.9911597	soumèt	-0.16386695
-4.2938533	Kedòlaòmè.	-0.102676556
-4.2938533	Okontrè,	-0.102676556
-3.3641527	fòs	-0.22541228
-3.6460435	kouraj	-0.13658059
-3.8436186	asepte	-0.102676556
-3.7336912	soufri	-0.102676556
-3.8436186	klè	-0.102676556
-3.7336912	Fon	-0.1424978
-4.2938533	Monetè	-0.102676556
-4.1084504	Entènasyonal	-0.102676556
-4.1084504	Bank	-0.102676556
-4.2938533	Mondyal,	-0.102676556
-3.8436186	nesesite	-0.16386695
-3.8436186	jou.	-0.43377748
-3.3641527	delivre	-0.25015414
-3.5107486	santi	-0.14991918
-3.8436186	Levi	-0.20364155
-3.9911597	teritwa	-0.102676556
-3.5731487	Jida	-0.19439732
-2.7560735	voye	-0.27445173
-4.1084504	dekouraje,	-0.102676556
-3.9911597	sèman	-0.102676556
-4.2938533	Zanj	-0.102676556
-4.1084504	fòm	-0.102676556
-4.2938533	flanm	-0.102676556
-3.2236514	dife	-0.26232734
-4.1084504	touf	-0.102676556
-3.9911597	bwa.	-0.30883875
-3.2547483	renmen	-0.13318142
-4.2938533	Chak	-0.102676556
-3.9911597	recho	-0.102676556
-3.8436186	dife,	-0.102676556
-4.1084504	Men,	-0.10777975
-4.2938533	istwa	-0.102676556
-3.6460435	sans	-0.102676556
-3.7336912	dakò	-0.21436185
-4.2938533	radòt	-0.102676556
-3.8436186	merite	-0.102676556
-4.2938533	repete.	-0.102676556
-4.2938533	12,000	-0.102676556
-4.1084504	lagè.	-0.23511535
-4.2938533	Anplwaye	-0.102676556
-4.2938533	libreman	-0.102676556
-4.2938533	ywit	-0.102676556
-4.1084504	aspè	-0.102676556
-3.8436186	adorasyon	-0.102676556
-4.1084504	Jeriko,	-0.102676556
-3.5731487	Bèt	-0.102676556
-4.2938533	Ogla,	-0.102676556
-4.2938533	Emèk	-0.102676556
-4.2938533	kesis,	-0.102676556
-4.2938533	arara,	-0.102676556
-4.2938533	Semarayim,	-0.102676556
-4.1084504	Betèl,	-0.102676556
-4.2938533	Avim,	-0.102676556
-4.2938533	Para,	-0.102676556
-4.2938533	Ofra,	-0.102676556
-4.2938533	Kefa	-0.102676556
-4.2938533	amoni,	-0.102676556
-4.2938533	Ofni,	-0.102676556
-4.2938533	Geba.	-0.102676556
-3.9911597	sant	-0.102676556
-4.2938533	zès	-0.102676556
-3.6460435	zoranj	-0.13658059
-4.1084504	3zyèm	-0.102676556
-3.9911597	Zabilon	-0.16386695
-4.1084504	bò,	-0.102676556
-3.8436186	ayisyen	-0.24742948
-3.6460435	dwa	-0.120603085
-2.7990315	ni	-0.24702303
-3.7336912	fèmen	-0.102676556
-4.1084504	prizon	-0.102676556
-3.8436186	anplwaye	-0.102676556
-4.1084504	Misyon	-0.102676556
-4.2938533	Malgre	-0.102676556
-4.2938533	sitan	-0.102676556
-3.1418364	genyen	-0.20207745
-3.7336912	wont	-0.1863423
-3.3245423	bondye	-0.20207748
-3.8436186	fo	-0.102676556
-3.8436186	prizonye	-0.16386695
-3.8436186	Jojakim	-0.102676556
-4.2938533	batèm	-0.102676556
-3.2236514	Kris	-0.5441616
-3.5107486	kalite	-0.112294815
-4.2938533	pèsiste	-0.102676556
-4.2938533	pant	-0.102676556
-3.9911597	Pou	-0.12213092
-4.2938533	Kanlwiz,	-0.102676556
-4.2938533	septanm	-0.102676556
-4.2938533	prèske	-0.102676556
-3.2236514	ankò.	-1.0078087
-3.8436186	maladi	-0.102676556
-3.5731487	pini	-0.16731536
-3.7336912	estati	-0.1424978
-3.9911597	Biwo	-0.102676556
-4.2938533	santral	-0.102676556
-3.9911597	sila	-0.16386695
-4.2938533	Montay	-0.102676556
-4.2938533	Nwa,	-0.102676556
-4.2938533	piwo	-0.102676556
-4.2938533	Petyonvil.	-0.102676556
-4.1084504	raple	-0.102676556
-4.2938533	vis	-0.102676556
-4.1084504	delege	-0.102676556
-4.1084504	Mak	-0.23511535
-4.2938533	Lamou	-0.102676556
-4.1084504	rasanbleman	-0.102676556
-3.7336912	piblik	-0.15091968
-4.2938533	Chanpay	-0.102676556
-4.1084504	dat	-0.102676556
-3.6460435	9	-0.102676556
-3.8436186	desanm	-0.1424978
-4.1084504	1996	-0.102676556
-3.8436186	flèch	-0.102676556
-3.8436186	depase	-0.102676556
-3.3641527	ye	-0.21760319
-3.3641527	met	-0.12394351
-4.2938533	deyò,	-0.102676556
-3.9911597	ale.	-0.30883875
-3.5107486	jete	-0.1863423
-3.3245423	manje,	-0.15023157
-3.8436186	pen,	-0.16386695
-4.2938533	mèsi,	-0.102676556
-4.1084504	pran,	-0.102676556
-3.4561982	manje.	-0.78596
-4.2938533	Pilat,	-0.102676556
-4.2938533	Twazan	-0.102676556
-4.1084504	Chimeyi	-0.102676556
-4.2938533	sove,	-0.102676556
-4.1084504	Akich,	-0.23511535
-3.9911597	Maka	-0.102676556
-4.2938533	Gat.	-0.102676556
-2.9781144	na	-0.18921764
-3.073018	ale	-0.283823
-4.1084504	Simeyon	-0.102676556
-4.2938533	Nakò	-0.102676556
-4.2938533	Sewouk,	-0.102676556
-4.2938533	Sewouk	-0.102676556
-4.2938533	Rago,	-0.102676556
-4.2938533	Rago	-0.102676556
-4.2938533	Falèk,	-0.102676556
-4.2938533	Falèk	-0.102676556
-3.9911597	Ebè,	-0.102676556
-4.2938533	Ebè	-0.102676556
-4.2938533	Sala.	-0.102676556
-4.1084504	katastwòf	-0.102676556
-3.3641527	bout	-0.102676556
-3.9911597	lise	-0.102676556
-4.2938533	Petyon	-0.102676556
-4.1084504	Entèvansyon	-0.102676556
-4.2938533	Rapid	-0.102676556
-3.9911597	Polis	-0.102676556
-3.7336912	Nasyonal	-0.1424978
-4.2938533	debake.	-0.102676556
-4.2938533	revandike	-0.102676556
-4.2938533	seri	-0.102676556
-4.2938533	atò	-0.102676556
-3.4077413	chemen	-0.17356548
-4.2938533	raje?	-0.102676556
-3.7336912	moso	-0.19363749
-4.1084504	plat	-0.102676556
-4.1084504	Mòn	-0.102676556
-4.2938533	An	-0.102676556
-4.2938533	reyalite,	-0.102676556
-3.5731487	Ti	-0.13040194
-3.8436186	Mari	-0.102676556
-4.1084504	katriyèm	-0.102676556
-3.4077413	w,	-0.17369811
-4.2938533	sizyèm	-0.102676556
-4.2938533	Diran	-0.102676556
-4.2938533	prè	-0.102676556
-3.9911597	enstriman	-0.102676556
-4.2938533	mizikal	-0.102676556
-3.1946332	dwe	-0.12738997
-4.2938533	rakòde.	-0.102676556
-3.9911597	depòte	-0.102676556
-3.3245423	boule	-0.20089023
-4.2938533	Orite	-0.102676556
-4.1084504	Lajistis	-0.102676556
-4.2938533	manfouben	-0.102676556
-4.1084504	plak	-0.102676556
-4.1084504	enspeksyon	-0.102676556
-4.1084504	machin,	-0.102676556
-4.2938533	fatra.	-0.102676556
-3.6460435	nwaj	-0.15091968
-3.4561982	van	-0.36972874
-3.5731487	gaye	-0.13219497
-3.9911597	lapli.	-0.30883875
-4.1084504	Miche,	-0.102676556
-4.2938533	Ramòt	-0.102676556
-3.9911597	Galarad,	-0.102676556
-3.8436186	sè	-0.102676556
-3.9911597	Berya	-0.102676556
-4.1084504	Akio,	-0.102676556
-4.2938533	Chachak,	-0.102676556
-4.1084504	Jeremòt,	-0.102676556
-4.1084504	Zebadya,	-0.102676556
-4.2938533	Arad,	-0.102676556
-4.2938533	Edè,	-0.102676556
-4.2938533	Michayèl,	-0.102676556
-4.2938533	Ichpa	-0.102676556
-4.2938533	Joa.	-0.102676556
-4.2938533	M	-0.102676556
-3.0523055	ou,	-0.14380768
-4.2938533	Cheve	-0.102676556
-3.6460435	pouse	-0.13658059
-4.2938533	plim	-0.102676556
-4.2938533	malfini,	-0.102676556
-4.2938533	zong	-0.102676556
-3.9911597	long	-0.102676556
-4.1084504	grif	-0.102676556
-4.2938533	zwezo.	-0.102676556
-4.2938533	Sou	-0.102676556
-3.9911597	pòtre	-0.16386695
-3.3245423	twa	-0.16198689
-3.9911597	flè	-0.102676556
-4.1084504	nwa	-0.102676556
-4.2938533	kajou	-0.102676556
-4.2938533	boujon	-0.102676556
-4.2938533	otorite,	-0.102676556
-4.2938533	lwanj,	-0.102676556
-3.9911597	Ivon	-0.1863423
-4.2938533	Cheri	-0.102676556
-3.9911597	direktè	-0.102676556
-3.8436186	radyo	-0.16386695
-3.4561982	polisye	-0.19119212
-4.2938533	arèstasyon.	-0.102676556
-4.1084504	vre:	-0.102676556
-3.8436186	pozisyon	-0.15091968
-3.6460435	dirije	-0.17369811
-4.2938533	legliz,	-0.102676556
-3.9911597	travay.	-0.30883875
-4.2938533	San	-0.102676556
-3.9911597	tan,	-0.102676556
-4.2938533	Moris	-0.102676556
-3.3641527	kouri	-0.2054551
-4.2938533	grate	-0.102676556
-3.9911597	grenn	-0.16386695
-3.073018	lan.	-1.1539367
-4.1084504	Kote	-0.102676556
-4.2938533	Dinoran	-0.102676556
-4.2938533	Ogisten	-0.102676556
-4.2938533	Jilandre	-0.102676556
-4.2938533	Ipolit	-0.102676556
-3.7336912	oblije	-0.102676556
-4.2938533	vwazinay.	-0.102676556
-4.1084504	Kominote	-0.23511535
-4.1084504	konkou	-0.102676556
-3.167433	mache	-0.16733001
-3.3245423	mesaj	-0.1993945
-4.1084504	Jide	-0.102676556
-4.2938533	Atoufè	-0.102676556
-3.7336912	ponyèt	-0.102676556
-3.8436186	Nèlsiyis	-0.102676556
-3.9911597	Filip	-0.102676556
-4.2938533	Ayou	-0.102676556
-4.2938533	Dorisme	-0.102676556
-4.2938533	limenm,	-0.102676556
-4.2938533	anfle	-0.102676556
-3.5107486	kout	-0.102676556
-3.8436186	non,	-0.102676556
-3.8436186	alatèt	-0.15091968
-4.2938533	Kifè	-0.102676556
-4.2938533	favè,	-0.102676556
-3.7336912	sektè	-0.15091968
-3.9911597	angajman	-0.1863423
-4.2938533	replase	-0.102676556
-3.8436186	prensip	-0.1424978
-4.2938533	etik	-0.102676556
-4.2938533	sikonsi	-0.102676556
-3.7336912	mak	-0.102676556
-4.1084504	sikonsizyon	-0.102676556
-4.2938533	A,	-0.102676556
-3.8436186	Seyè,	-0.21436185
-4.1084504	pouvwa,	-0.102676556
-3.3245423	lapriyè	-0.204456
-3.5107486	respekte	-0.102676556
-3.8436186	Jou	-0.102676556
-4.2938533	Babo	-0.102676556
-4.2938533	anbiskad	-0.102676556
-3.7336912	eseye	-0.13658059
-3.8436186	sezi	-0.102676556
-4.1084504	Divalye.	-0.23511535
-4.2938533	Baalzeboub,	-0.102676556
-4.1084504	Ekwon	-0.102676556
-3.9911597	an?	-0.30883875
-3.4561982	rive,	-0.19633155
-3.6460435	fèt.	-0.60986876
-3.6460435	madan	-0.19363749
-3.5107486	marye	-0.18148333
-4.1084504	Maka,	-0.23511535
-3.7336912	Absalon	-0.102676556
-4.2938533	renmen.	-0.102676556
-3.5107486	farawon	-0.46513462
-4.2938533	anpile	-0.102676556
-4.1084504	pwovizyon	-0.102676556
-3.8436186	depo	-0.102676556
-4.1084504	vil,	-0.102676556
-3.5731487	lèfini	-0.17335714
-3.6460435	veye	-0.13219497
-3.9911597	Jefte	-0.102676556
-3.4561982	sanble	-0.16198689
-4.1084504	Galarad	-0.102676556
-3.7336912	Efrayim	-0.13658059
-4.2938533	Devan	-0.102676556
-4.2938533	difikilte	-0.102676556
-3.2236514	konnen	-0.1261286
-4.2938533	sèn	-0.102676556
-3.7336912	sove	-0.102676556
-4.2938533	fleyo	-0.102676556
-4.2938533	Nenpòt	-0.102676556
-3.7336912	lèzòm	-0.102676556
-4.2938533	travay,	-0.102676556
-4.1084504	Madyan	-0.102676556
-4.1084504	Evi,	-0.23511535
-4.2938533	Rekèm,	-0.102676556
-4.1084504	Zou,	-0.102676556
-4.1084504	Reba.	-0.23511535
-3.9911597	kad	-0.102676556
-3.8436186	Prezidan	-0.102676556
-4.2938533	Repiblik	-0.102676556
-4.2938533	konsiltasyon	-0.102676556
-4.1084504	Depite	-0.102676556
-4.1084504	kritike	-0.102676556
-3.8436186	Mari,	-0.23511535
-4.2938533	Magdala	-0.102676556
-4.2938533	Jak	-0.102676556
-3.5731487	Jozèf,	-0.13658059
-4.2938533	Zebede	-0.102676556
-4.2938533	Nòb,	-0.102676556
-4.2938533	Akimelèk,	-0.102676556
-4.2938533	Akitoub	-0.102676556
-4.2938533	Kalde	-0.102676556
-3.4561982	malè	-0.1261286
-3.9911597	lagè	-0.102676556
-3.7336912	chatiman	-0.1424978
-4.2938533	Dezyèmman	-0.102676556
-4.1084504	pri	-0.102676556
-3.2547483	kounye	-0.45931527
-4.2938533	majistra	-0.102676556
-4.2938533	pwovens.	-0.102676556
-3.1418364	louvri	-0.17562376
-3.9911597	Jerizalèm	-0.11929777
-4.1084504	maten	-0.102676556
-3.9911597	toutotan	-0.102676556
-3.7336912	konmanse	-0.102676556
-4.2938533	cho.	-0.102676556
-4.2938533	Outayi,	-0.102676556
-4.2938533	Zaboud	-0.102676556
-4.2938533	Bigvayi	-0.102676556
-4.2938533	Manyè	-0.102676556
-3.3641527	peye	-0.11816967
-4.1084504	Seza	-0.102676556
-3.8436186	kontribisyon	-0.102676556
-3.8436186	wi	-0.102676556
-4.2938533	non?	-0.102676556
-4.2938533	Sizyèm	-0.102676556
-4.2938533	Elyasaf,	-0.102676556
-4.2938533	Dewèl	-0.102676556
-4.1084504	Gad	-0.102676556
-4.2938533	Plizyè	-0.102676556
-4.2938533	rezidan	-0.102676556
-4.1084504	Lagonav	-0.102676556
-4.2938533	kanntè	-0.102676556
-4.2938533	miyami	-0.102676556
-3.9911597	koudeta	-0.102676556
-4.2938533	regrèt	-0.102676556
-4.2938533	Kiba.	-0.102676556
-3.6460435	Tant	-0.60986876
-4.2938533	Randevou	-0.102676556
-3.9911597	kwiv	-0.102676556
-4.1084504	mil	-0.102676556
-4.1084504	site	-0.102676556
-3.9911597	chomaj,	-0.102676556
-4.2938533	chè,	-0.102676556
-4.2938533	lamizè,	-0.102676556
-4.2938533	ensekirite,	-0.102676556
-4.2938533	kòripsyon,	-0.102676556
-4.2938533	okipasyon,	-0.102676556
-4.2938533	enpinite	-0.102676556
-4.2938533	etsetera	-0.102676556
-4.2938533	era,	-0.102676556
-4.1084504	era.	-0.23511535
-3.5107486	gason,	-0.20691137
-3.9911597	dòmi	-0.102676556
-4.1084504	gravye	-0.102676556
-4.2938533	make,	-0.102676556
-4.1084504	leve.	-0.23511535
-4.2938533	fonn	-0.102676556
-4.2938533	jiska	-0.102676556
-4.2938533	prezan	-0.102676556
-3.5731487	biwo	-0.17941746
-4.2938533	èspòtif	-0.102676556
-3.5107486	vil	-0.15091968
-4.2938533	jakmèl	-0.102676556
-4.2938533	Vè	-0.102676556
-3.6460435	zè	-0.29354307
-4.2938533	aswè,	-0.102676556
-3.9911597	libere	-0.102676556
-4.2938533	Nòl	-0.102676556
-3.3641527	Jan	-0.1477423
-3.8436186	tabli	-0.102676556
-4.2938533	enstitisyon,	-0.102676556
-4.1084504	gentan	-0.102676556
-4.1084504	depanse	-0.102676556
-4.2938533	43	-0.102676556
-3.7336912	milyon	-0.1424978
-4.1084504	21	-0.102676556
-3.9911597	dola	-0.102676556
-4.2938533	ameriken	-0.102676556
-3.8436186	lane	-0.102676556
-4.2938533	2000.	-0.102676556
-4.1084504	Bèlans	-0.102676556
-4.2938533	49.000	-0.102676556
-4.2938533	ladann	-0.102676556
-4.2938533	sipèfisi	-0.102676556
-4.2938533	346	-0.102676556
-3.7336912	kilomèt	-0.15091968
-4.2938533	kare.	-0.102676556
-4.1084504	cheriben	-0.16386695
-3.3245423	bwa	-0.14030837
-3.9911597	oliv	-0.15091968
-3.3245423	apa	-0.3884495
-3.8436186	adore	-0.13219497
-3.5107486	toupatou	-0.24742948
-3.7336912	anyen.	-0.5306875
-3.8436186	bagay.	-0.43377748
-4.2938533	Touye	-0.102676556
-3.5107486	mezi	-0.13219497
-3.3245423	kit	-0.34840214
-3.2882447	zanmi	-0.1993945
-4.2938533	betiz	-0.102676556
-4.2938533	obsèvasyon	-0.102676556
-4.2938533	korije	-0.102676556
-4.2938533	Bèf,	-0.102676556
-4.2938533	Bèf	-0.102676556
-3.5731487	la?	-0.6768155
-3.5107486	rich	-0.1261286
-3.3245423	kou	-0.102676556
-4.1084504	pòv,	-0.102676556
-4.2938533	Rès	-0.102676556
-3.8436186	mezire	-0.13658059
-4.2938533	edmi	-0.102676556
-4.1084504	longè,	-0.102676556
-4.2938533	lajè.	-0.102676556
-3.7336912	19	-0.15091968
-3.9911597	komin	-0.102676556
-3.9911597	depatman	-0.102676556
-3.8436186	Nò	-0.102676556
-4.1084504	distans	-0.102676556
-3.9911597	anviwon	-0.102676556
-3.7336912	50	-0.15091968
-4.1084504	Okap.	-0.23511535
-3.9911597	fotèy	-0.102676556
-3.6460435	dwat	-0.1261286
-3.8436186	Filisti	-0.19119212
-3.6460435	lontan	-0.1261286
-3.6460435	detwi	-0.102676556
-4.2938533	raj.	-0.102676556
-3.8436186	fou	-0.102676556
-4.1084504	swadizan	-0.102676556
-4.2938533	fou,	-0.102676556
-4.2938533	okontrè	-0.102676556
-4.2938533	manèv	-0.102676556
-4.2938533	tantativ	-0.102676556
-4.1084504	simen	-0.102676556
-4.2938533	konfizyon.	-0.102676556
-3.5107486	pen	-0.14991918
-3.9911597	kwit	-0.102676556
-4.2938533	platin,	-0.102676556
-3.8436186	farin	-0.15091968
-3.6460435	ble	-0.102676556
-3.5107486	lwil	-0.16988216
-4.2938533	oliv,	-0.102676556
-3.9911597	ledven	-0.102676556
-4.2938533	kot	-0.102676556
-3.2236514	7	-0.15091968
-4.2938533	mo,	-0.102676556
-4.2938533	soufri.	-0.102676556
-4.1084504	600	-0.102676556
-4.1084504	700	-0.102676556
-3.4077413	sèlman	-0.102676556
-4.2938533	60	-0.102676556
-3.9911597	lavi.	-0.30883875
-4.2938533	Na	-0.102676556
-4.1084504	resansman	-0.102676556
-3.2882447	dapre	-0.1423081
-4.2938533	òganize.	-0.102676556
-3.4561982	rekonèt	-0.102676556
-3.9911597	diferans	-0.102676556
-4.2938533	monn	-0.102676556
-3.5731487	fason	-0.15662643
-3.7336912	pito	-0.102676556
-4.2938533	Adadezè	-0.102676556
-4.1084504	Aram	-0.102676556
-4.2938533	Lefrat	-0.102676556
-4.2938533	kanalize	-0.102676556
-4.2938533	awoze	-0.102676556
-4.2938533	rebwazman	-0.102676556
-3.5107486	avan	-0.102676556
-4.1084504	vitès	-0.102676556
-4.2938533	Kire	-0.102676556
-4.2938533	pawas	-0.102676556
-4.2938533	Jakvil	-0.102676556
-3.9911597	Gabriyèl	-0.102676556
-3.8436186	Chal	-0.16386695
-4.2938533	prezantatè	-0.102676556
-4.2938533	prensipal,	-0.102676556
-4.2938533	èns	-0.102676556
-4.2938533	Pedwo.	-0.102676556
-4.2938533	Poutan,	-0.102676556
-4.2938533	Kanlwiz	-0.102676556
-3.9911597	travayè	-0.102676556
-4.1084504	agrikòl	-0.102676556
-3.9911597	touche	-0.102676556
-4.2938533	mwens	-0.102676556
-3.9911597	goud	-0.102676556
-4.1084504	Jounen	-0.102676556
-4.2938533	tèd	-0.102676556
-4.2938533	wi:	-0.102676556
-3.1946332	mouri	-0.18024912
-3.8436186	rive.	-0.43377748
-4.2938533	Dariyis	-0.102676556
-3.6460435	deside	-0.102676556
-4.2938533	120	-0.102676556
-4.2938533	prefè	-0.102676556
-4.2938533	Farawon	-0.102676556
-3.2547483	Jozèf	-0.17811884
-3.7336912	gouvènen	-0.102676556
-3.8436186	Akab	-0.16386695
-4.1084504	Siri	-0.102676556
-3.167433	kraze	-0.15368275
-4.2938533	Pouvwa	-0.102676556
-3.9911597	langaj	-0.102676556
-4.1084504	lè,	-0.102676556
-4.1084504	konesans	-0.102676556
-3.9911597	disparèt.	-0.30883875
-3.2547483	ankò,	-0.15023157
-3.4561982	vivan	-0.1477423
-4.1084504	lanmò.	-0.23511535
-4.2938533	kapab,	-0.102676556
-3.5107486	antan	-0.13219497
-3.8436186	toujou,	-0.102676556
-3.9911597	mesaje	-0.102676556
-4.2938533	aranjman.	-0.102676556
-4.2938533	lapawòl,	-0.102676556
-4.2938533	Kanpe	-0.102676556
-4.1084504	non.	-0.23511535
-3.1418364	oubyen	-0.1288143
-3.2236514	3	-0.117185004
-4.2938533	eksplikasyon	-0.102676556
-3.9911597	relasyon	-0.1863423
-3.4077413	kwè	-0.12213092
-4.2938533	Goumen	-0.102676556
-4.2938533	pete,	-0.102676556
-4.2938533	voye!	-0.102676556
-3.5731487	konn	-0.15493883
-4.2938533	pwason,	-0.102676556
-3.9911597	vwa	-0.102676556
-4.2938533	bobo	-0.102676556
-4.2938533	youn?	-0.102676556
-4.1084504	Toni	-0.23511535
-4.2938533	Blè	-0.102676556
-3.7336912	pwomèt	-0.102676556
-4.2938533	privatize	-0.102676556
-4.2938533	sendika	-0.102676556
-4.2938533	konsèvatè	-0.102676556
-3.8436186	kondisyon	-0.102676556
-4.1084504	derespekte	-0.102676556
-3.9911597	koule	-0.102676556
-3.7336912	repwòch	-0.15091968
-3.7336912	baz	-0.102676556
-4.1084504	17	-0.102676556
-3.9911597	ansanm,	-0.1863423
-3.3245423	fè.	-0.91089875
-3.7336912	mwatye	-0.22019088
-3.7336912	Manase	-0.1424978
-4.2938533	Pito	-0.102676556
-4.1084504	pye,	-0.102676556
-4.2938533	lanfè.	-0.102676556
-4.1084504	Eleaza,	-0.23511535
-3.6460435	manyen	-0.102676556
-4.1084504	aswè	-0.102676556
-4.1084504	Frè	-0.16386695
-4.2938533	Wòm	-0.102676556
-3.4077413	kontre	-0.2783423
-4.2938533	Mache	-0.102676556
-4.2938533	Apiyis	-0.102676556
-4.2938533	Kalfou	-0.102676556
-4.2938533	Twa	-0.102676556
-4.2938533	Kafe.	-0.102676556
-3.3641527	bati	-0.17449278
-3.9911597	atout	-0.1863423
-3.6460435	piti	-0.13219497
-4.1084504	li?	-0.23511535
-4.2938533	Mèkredi	-0.102676556
-3.5731487	mas	-0.27818283
-3.4077413	jounen	-0.16988216
-3.6460435	grèv	-0.13658059
-3.9911597	jeneral	-0.102676556
-3.7336912	aktivite	-0.102676556
-3.8436186	bloke	-0.102676556
-3.8436186	ase	-0.102676556
-4.1084504	bwè.	-0.23511535
-4.2938533	Dimanch	-0.102676556
-3.4077413	Pòl	-0.12394351
-4.2938533	Viksama,	-0.102676556
-4.2938533	Senfayi	-0.102676556
-4.2938533	Edwa,	-0.102676556
-4.2938533	Mesiyis	-0.102676556
-4.2938533	katèl	-0.102676556
-3.9911597	kazèk	-0.102676556
-4.2938533	Chanpay.	-0.102676556
-4.1084504	monwa,	-0.102676556
-3.7336912	kontwole	-0.17335714
-3.9911597	lwanj	-0.102676556
-4.1084504	Di	-0.102676556
-3.5731487	Mèt	-0.21148667
-4.1084504	Vwala,	-0.102676556
-3.9911597	malfini	-0.102676556
-4.2938533	laj.	-0.102676556
-3.9911597	natif	-0.102676556
-4.2938533	natal	-0.102676556
-4.2938533	Mispa	-0.102676556
-3.9911597	rèd	-0.102676556
-3.7336912	ras	-0.102676556
-4.1084504	wotè.	-0.23511535
-3.3641527	tant	-0.31589884
-4.1084504	Sèm	-0.102676556
-4.1084504	Jafè	-0.102676556
-4.1084504	rad,	-0.102676556
-4.1084504	bout,	-0.102676556
-3.3641527	anwo	-0.102676556
-4.1084504	zepòl	-0.102676556
-4.2938533	machè,	-0.102676556
-4.2938533	pèsonèlman	-0.102676556
-4.2938533	konprann,	-0.102676556
-4.2938533	sezisman,	-0.102676556
-3.8436186	fouye	-0.17941746
-3.6460435	twou	-0.12394351
-3.9911597	tonbe,	-0.102676556
-3.9911597	pèlen	-0.1863423
-4.2938533	Asnapa,	-0.102676556
-4.1084504	pòtoprens	-0.102676556
-3.4561982	koupe	-0.14991918
-4.2938533	fim	-0.102676556
-4.2938533	westèn	-0.102676556
-4.2938533	kòboy	-0.102676556
-4.2938533	Gilgal,	-0.102676556
-3.4561982	m.	-0.78596
-4.2938533	Chama	-0.102676556
-4.2938533	pwa	-0.102676556
-4.2938533	bat.	-0.102676556
-4.2938533	Pri	-0.102676556
-4.2938533	diri,	-0.102676556
-4.2938533	mayi,	-0.102676556
-4.2938533	pwa,	-0.102676556
-4.1084504	lwil,	-0.102676556
-4.2938533	savon,	-0.102676556
-4.2938533	gaz,	-0.102676556
-4.2938533	transpò,	-0.102676556
-4.2938533	materyèl	-0.102676556
-3.8436186	lekòl	-0.102676556
-4.2938533	nèg.	-0.102676556
-4.2938533	madichon,	-0.102676556
-3.2547483	lanmò	-0.1424978
-3.8436186	Nèbikadneza,	-0.43377748
-3.9911597	Babilòn	-0.1424978
-4.2938533	blag	-0.102676556
-3.8436186	plezi	-0.102676556
-4.2938533	Epitou,	-0.102676556
-3.7336912	Abraram,	-0.21436185
-4.2938533	Jakòb.	-0.102676556
-3.6460435	Pyè	-0.102676556
-4.2938533	Antyòch,	-0.102676556
-4.2938533	Emanis	-0.102676556
-3.9911597	mizè	-0.102676556
-3.4561982	deyò	-0.12213092
-4.2938533	imilyasyon	-0.102676556
-3.3245423	sèt	-0.13930158
-3.9911597	lanp	-0.1863423
-3.5107486	rès	-0.102676556
-4.1084504	egzijans	-0.102676556
-3.9911597	volonte	-0.102676556
-4.1084504	lachè.	-0.23511535
-4.1084504	Libni	-0.102676556
-4.1084504	Makli	-0.102676556
-4.2938533	Mouchi	-0.102676556
-4.2938533	Kore	-0.102676556
-4.2938533	Chekanya	-0.102676556
-4.2938533	Chemaya,	-0.102676556
-3.9911597	pitit,	-0.102676556
-4.2938533	Atouch,	-0.102676556
-4.2938533	Igal,	-0.102676556
-4.2938533	Barya,	-0.102676556
-4.2938533	Nearya	-0.102676556
-4.2938533	Chafat.	-0.102676556
-4.2938533	Monchè,	-0.102676556
-4.2938533	tiye	-0.102676556
-4.1084504	mwen?	-0.23511535
-3.9911597	mouvman	-0.102676556
-4.1084504	revolisyonè	-0.102676556
-4.1084504	Toupak	-0.23511535
-4.2938533	Amawou	-0.102676556
-4.2938533	anbasad	-0.102676556
-4.2938533	Japon	-0.102676556
-4.2938533	Pewou	-0.102676556
-4.2938533	otaj.	-0.102676556
-4.2938533	Bawouk	-0.102676556
-3.8436186	Jeremi	-0.102676556
-3.9911597	tande.	-0.30883875
-3.9911597	pòch	-0.13658059
-3.6460435	peze	-0.1288143
-3.8436186	ajan	-0.1261286
-4.2938533	balans,	-0.102676556
-3.9911597	òfèv	-0.102676556
-4.2938533	Batis	-0.102676556
-3.8436186	vini,	-0.16386695
-4.1084504	diven,	-0.102676556
-3.4077413	lespri	-0.15023157
-4.2938533	dekouraje	-0.102676556
-3.8436186	sekretè	-0.102676556
-4.1084504	lin	-0.102676556
-4.1084504	pwal	-0.102676556
-4.2938533	Dlo	-0.102676556
-4.2938533	Esdras	-0.102676556
-4.2938533	granmaten	-0.102676556
-4.2938533	midi.	-0.102676556
-4.1084504	olye	-0.102676556
-3.9911597	òm	-0.102676556
-4.1084504	metye	-0.102676556
-3.8436186	kesyon	-0.102676556
-4.2938533	lajistis.	-0.102676556
-3.6460435	fò	-0.102676556
-4.2938533	farizyen.	-0.102676556
-4.2938533	Abram	-0.102676556
-3.3245423	anpil,	-0.15884148
-3.9911597	mouton,	-0.16386695
-4.1084504	lò.	-0.23511535
-3.9911597	angaje	-0.102676556
-3.3641527	kontra	-0.17335714
-4.2938533	avèl	-0.102676556
-3.5731487	bese	-0.5484595
-3.7336912	atè,	-0.1424978
-3.8436186	poukisa	-0.102676556
-3.6460435	mò	-0.1424978
-3.8436186	vi	-0.1424978
-3.7336912	bag	-0.102676556
-4.2938533	letanp	-0.102676556
-3.9911597	rache	-0.102676556
-3.7336912	dwèt	-0.1863423
-4.2938533	jennonm	-0.102676556
-3.4561982	chan	-0.1988548
-4.2938533	bannann,	-0.102676556
-4.2938533	patat,	-0.102676556
-4.2938533	kann,	-0.102676556
-4.2938533	mango,	-0.102676556
-4.2938533	anfen	-0.102676556
-3.8436186	abiye	-0.102676556
-4.1084504	denmen	-0.102676556
-3.9911597	chofe	-0.102676556
-4.2938533	fou.	-0.102676556
-4.2938533	Kò	-0.102676556
-4.1084504	bèlte	-0.102676556
-4.2938533	Plis	-0.102676556
-3.9911597	300	-0.102676556
-3.5107486	pwofesè	-0.16904986
-3.9911597	lari	-0.20519942
-3.1946332	gouvènman	-0.25121257
-3.9911597	Esmat	-0.1863423
-3.9911597	satisfè	-0.24742948
-3.9911597	revandikasyon	-0.102676556
-4.1084504	antou	-0.102676556
-3.9911597	katòz	-0.1863423
-4.1084504	jenerasyon	-0.102676556
-4.1084504	sentiwon	-0.102676556
-4.2938533	ren	-0.102676556
-3.9911597	fèy	-0.102676556
-3.5731487	chèch	-0.17941746
-4.2938533	kouri.	-0.102676556
-4.1084504	mache,	-0.23511535
-3.8436186	divizyon	-0.16386695
-4.1084504	pati.	-0.23511535
-4.2938533	kouvèti	-0.102676556
-3.7336912	zak	-0.102676556
-4.2938533	briganday	-0.102676556
-4.2938533	soulve	-0.102676556
-4.1084504	kolè	-0.102676556
-4.2938533	Anviwon	-0.102676556
-4.2938533	misyonè	-0.102676556
-4.2938533	chòk	-0.102676556
-3.9911597	kase,	-0.102676556
-3.6460435	dan	-0.102676556
-4.1084504	lò,	-0.102676556
-4.2938533	tache	-0.102676556
-3.9911597	plastwon	-0.1863423
-4.2938533	lanvè,	-0.102676556
-4.2938533	bòdi	-0.102676556
-4.2938533	jile	-0.102676556
-4.2938533	Mouche	-0.102676556
-4.2938533	estime	-0.102676556
-4.1084504	konnen.	-0.23511535
-3.4077413	fwa	-0.115548804
-3.9911597	sètoblije	-0.102676556
-3.8436186	kale	-0.102676556
-4.2938533	grandèt	-0.102676556
-3.3245423	timoun	-0.18063152
-4.2938533	sipoze	-0.102676556
-3.6460435	konprann	-0.102676556
-3.9911597	w.	-0.30883875
-4.2938533	eksplike	-0.102676556
-3.6460435	jodi	-0.29354307
-4.1084504	idantite	-0.102676556
-4.2938533	lavil.	-0.102676556
-4.2938533	Gwoup	-0.102676556
-3.8436186	zenglendo	-0.102676556
-4.2938533	Figawo	-0.102676556
-4.2938533	feraye	-0.102676556
-4.2938533	Gonayiv.	-0.102676556
-4.1084504	sanble,	-0.102676556
-4.1084504	gadò	-0.102676556
-4.2938533	Kwake	-0.102676556
-4.2938533	pwemye	-0.102676556
-4.1084504	chapit	-0.102676556
-4.2938533	konekte,	-0.102676556
-4.2938533	22	-0.102676556
-4.1084504	koleksyon	-0.102676556
-3.3641527	plizyè	-0.12213092
-4.2938533	Jistis	-0.102676556
-4.2938533	reparasyon	-0.102676556
-4.1084504	Dyesèl	-0.102676556
-4.2938533	Sivil,	-0.102676556
-4.2938533	Genmps	-0.102676556
-3.9911597	Sen	-0.102676556
-4.1084504	Fò	-0.102676556
-3.8436186	viktim	-0.102676556
-4.2938533	Yap	-0.102676556
-4.1084504	gita,	-0.102676556
-3.4077413	yap	-0.102676556
-4.2938533	tanbou,	-0.102676556
-4.1084504	flit	-0.23511535
-4.2938533	bandjo,	-0.102676556
-4.1084504	danse,	-0.102676556
-3.7336912	sot	-0.16115387
-4.1084504	esklav,	-0.102676556
-4.2938533	fi,	-0.102676556
-3.8436186	30	-0.102676556
-4.2938533	Bon,	-0.102676556
-4.2938533	Miyami	-0.102676556
-4.1084504	Patrick	-0.102676556
-4.2938533	Wachinntonn.	-0.102676556
-4.2938533	taprale	-0.102676556
-4.1084504	Koulye	-0.1863423
-4.1084504	Dragon	-0.23511535
-4.2938533	egzèse	-0.102676556
-4.2938533	Van	-0.102676556
-4.2938533	tanpèt,	-0.102676556
-3.9911597	siklòn	-0.102676556
-3.9911597	kay,	-0.102676556
-4.1084504	bwote	-0.102676556
-3.8436186	bèt,	-0.15091968
-4.2938533	Jakmèl,	-0.102676556
-4.2938533	Marigo,	-0.102676556
-4.2938533	Ansafole,	-0.102676556
-4.2938533	Basenble,	-0.102676556
-4.1084504	Obòy,	-0.102676556
-4.2938533	Pòmago.	-0.102676556
-4.2938533	pitye	-0.102676556
-3.8436186	Siyon	-0.1424978
-4.2938533	Tèleyis	-0.102676556
-4.1084504	kòmkwa	-0.102676556
-3.8436186	Preval	-0.13658059
-4.1084504	Zèb	-0.102676556
-4.2938533	Ginen.	-0.102676556
-3.7336912	malgre	-0.21436185
-3.8436186	fache	-0.102676556
-4.2938533	konvenk	-0.102676556
-4.1084504	transmèt	-0.102676556
-4.2938533	defòme.	-0.102676556
-4.2938533	li;	-0.102676556
-4.2938533	Ou,	-0.102676556
-4.2938533	Objektif	-0.102676556
-4.2938533	dafè	-0.102676556
-4.2938533	konstwi	-0.102676556
-4.2938533	Pò	-0.102676556
-4.2938533	kwazyè	-0.102676556
-3.8436186	20	-0.102676556
-4.2938533	dola.	-0.102676556
-3.7336912	manti	-0.13658059
-3.8436186	gason.	-0.43377748
-4.2938533	Bouni.	-0.102676556
-3.9911597	pyebwa	-0.102676556
-4.1084504	dousman	-0.102676556
-4.2938533	dousman.	-0.102676556
-4.2938533	vòryen	-0.102676556
-4.2938533	Lap	-0.102676556
-3.7336912	defans	-0.1424978
-4.2938533	sote.	-0.102676556
-3.9911597	Pwovèb	-0.102676556
-3.8436186	deyè	-0.102676556
-4.2938533	Kidonk,	-0.102676556
-3.9911597	pwen	-0.102676556
-4.2938533	marasa	-0.102676556
-3.7336912	ye.	-0.5306875
-4.2938533	Kounye	-0.102676556
-4.2938533	òdinatè	-0.102676556
-4.2938533	dwe.	-0.102676556
-3.7336912	plede	-0.14630568
-4.2938533	Avèk	-0.102676556
-4.1084504	labou	-0.102676556
-4.2938533	krich:	-0.102676556
-3.9911597	krich	-0.15091968
-4.1084504	chè	-0.102676556
-4.1084504	mache.	-0.23511535
-4.2938533	Chafat,	-0.102676556
-4.2938533	Adlayi,	-0.102676556
-3.8436186	fon	-0.1288143
-4.2938533	Sanbala	-0.102676556
-4.2938533	Gechèm	-0.102676556
-4.2938533	Akefirim,	-0.102676556
-4.2938533	Ono	-0.102676556
-3.7336912	fèt,	-0.13219497
-3.5107486	bliye	-0.102676556
-3.9911597	soufrans	-0.16386695
-3.7336912	tèlman	-0.15091968
-3.4561982	kontan	-0.1288143
-4.1084504	latè.	-0.23511535
-3.5731487	envite	-0.15662643
-4.2938533	goute	-0.102676556
-4.2938533	Madyan.	-0.102676556
-4.1084504	zakasya	-0.102676556
-3.9911597	sèd	-0.102676556
-3.9911597	dezè	-0.17335714
-4.2938533	jasmen	-0.102676556
-4.2938533	mawon.	-0.102676556
-4.2938533	Pami	-0.102676556
-4.2938533	inno	-0.102676556
-4.2938533	Kone	-0.102676556
-4.2938533	paralize	-0.102676556
-4.2938533	fonksyònman	-0.102676556
-4.2938533	mechanste,	-0.102676556
-4.2938533	ponya,	-0.102676556
-3.5731487	enterè	-0.102676556
-3.7336912	prete	-0.15091968
-4.2938533	Amezi	-0.102676556
-4.2938533	konpetans	-0.102676556
-4.2938533	natirèlman	-0.102676556
-4.2938533	sibi	-0.102676556
-4.2938533	chanjman.	-0.102676556
-4.2938533	Amasya,	-0.102676556
-3.9911597	Joas,	-0.102676556
-4.2938533	kenzan	-0.102676556
-4.1084504	Joakaz,	-0.102676556
-4.2938533	Pran	-0.102676556
-3.9911597	wòch,	-0.15091968
-3.9911597	mòtye	-0.102676556
-4.2938533	pave	-0.102676556
-3.3245423	pòt	-0.1545797
-4.2938533	Tapanès.	-0.102676556
-4.2938533	Ofni	-0.102676556
-4.1084504	Fineas,	-0.102676556
-3.9911597	maten,	-0.102676556
-4.2938533	fas	-0.102676556
-4.2938533	Anpil	-0.102676556
-4.2938533	reyaksyon	-0.102676556
-3.9911597	Nòdès	-0.16386695
-3.8436186	lanse	-0.3443395
-4.2938533	operasyon	-0.102676556
-3.9911597	pase.	-0.30883875
-4.2938533	Reyini	-0.102676556
-4.1084504	lib	-0.102676556
-4.2938533	sekrè	-0.102676556
-4.2938533	manmn	-0.102676556
-4.1084504	kèlkeswa	-0.102676556
-3.5731487	enstitisyon	-0.102676556
-4.2938533	Dabò	-0.102676556
-3.9911597	posiblite	-0.1863423
-3.5731487	chanm	-0.1288143
-4.2938533	otèl	-0.102676556
-4.1084504	rido	-0.102676556
-3.9911597	kòdon	-0.102676556
-3.4561982	poto	-0.12394351
-4.2938533	mab.	-0.102676556
-3.7336912	jijman	-0.15091968
-4.2938533	Sòdòm	-0.102676556
-4.2938533	Gomò.	-0.102676556
-4.2938533	volè	-0.102676556
-4.2938533	volò	-0.102676556
-3.8436186	grangou	-0.1424978
-4.1084504	Bezaleyèl,	-0.102676556
-3.9911597	Ouri,	-0.102676556
-4.1084504	Ò,	-0.102676556
-3.9911597	glise	-0.1863423
-4.1084504	an!	-0.23511535
-3.7336912	pyè	-0.1261286
-4.2938533	bijou	-0.102676556
-4.1084504	jasp	-0.102676556
-4.2938533	kristal.	-0.102676556
-4.2938533	veyatif	-0.102676556
-4.1084504	kreyon	-0.23511535
-4.2938533	makè	-0.102676556
-4.2938533	gòm.	-0.102676556
-2.9955082	premye	-0.17686343
-4.1084504	Chekanya,	-0.23511535
-4.2938533	Jazyèl	-0.102676556
-4.2938533	Zatou	-0.102676556
-4.2938533	twonpe,	-0.102676556
-4.1084504	dezobeyi	-0.1863423
-3.6460435	lèt	-0.1261286
-4.2938533	Klòd	-0.102676556
-4.1084504	Lizyas	-0.102676556
-4.1084504	bonjou	-0.102676556
-3.8436186	gouvènè	-0.102676556
-4.2938533	Feliks.	-0.102676556
-4.2938533	Chabon	-0.102676556
-4.2938533	vit.	-0.102676556
-4.2938533	cheche	-0.102676556
-4.1084504	Lanmè	-0.102676556
-4.1084504	Wouj	-0.102676556
-3.8436186	soti	-0.13658059
-3.7336912	Woboram	-0.102676556
-4.2938533	Absalon,	-0.102676556
-3.9911597	Abija,	-0.102676556
-4.2938533	Atayi,	-0.102676556
-4.2938533	Ziza	-0.102676556
-4.2938533	Chelomit.	-0.102676556
-4.1084504	diskou	-0.102676556
-4.2938533	Majistra	-0.102676556
-4.2938533	Mase	-0.102676556
-3.7336912	deklare	-0.15091968
-4.2938533	envèstisman.	-0.102676556
-4.2938533	Ebre	-0.102676556
-4.2938533	Kontantman	-0.102676556
-4.2938533	kontantman	-0.102676556
-4.2938533	bwason.	-0.102676556
-4.2938533	Kit	-0.102676556
-4.2938533	vivan,	-0.102676556
-3.5107486	di,	-0.1288143
-4.1084504	reyalite	-0.102676556
-4.2938533	sansibman.	-0.102676556
-4.2938533	Rete	-0.102676556
-4.2938533	N	-0.102676556
-3.9911597	semèn	-0.102676556
-3.9911597	antye,	-0.102676556
-4.2938533	siwo	-0.102676556
-4.2938533	myèl	-0.102676556
-3.8436186	dlo.	-0.43377748
-4.1084504	fòtifye	-0.102676556
-3.8436186	sipòte	-0.16386695
-4.2938533	pasyans.	-0.102676556
-4.1084504	Bani	-0.102676556
-3.8436186	Mechoulam,	-0.15091968
-4.2938533	Malouk,	-0.102676556
-4.2938533	Adaja,	-0.102676556
-4.2938533	Jachoub,	-0.102676556
-4.2938533	Cheal	-0.102676556
-4.2938533	Jeramòt.	-0.102676556
-4.1084504	Fransen	-0.102676556
-4.2938533	Dwouya	-0.102676556
-3.6460435	lapolis	-0.102676556
-4.2938533	Anit	-0.102676556
-4.2938533	Rwa	-0.102676556
-3.4561982	achte	-0.16198689
-3.4561982	plen	-0.12394351
-3.8436186	Akaz	-0.1424978
-3.8436186	sekou,	-0.16386695
-4.2938533	Edon	-0.102676556
-3.5731487	pwoche	-0.5484595
-3.6460435	sitèlman	-0.102676556
-4.2938533	Zifjon,	-0.102676556
-4.2938533	Agi,	-0.102676556
-4.2938533	Chouni,	-0.102676556
-4.2938533	Ezbon,	-0.102676556
-4.2938533	Eri,	-0.102676556
-4.2938533	Awodi	-0.102676556
-4.2938533	Areyèli.	-0.102676556
-4.2938533	Majeste,	-0.102676556
-3.8436186	frape	-0.102676556
-4.2938533	peri	-0.102676556
-4.2938533	abitid	-0.102676556
-4.2938533	apa,	-0.102676556
-3.9911597	Madoche	-0.1863423
-4.1084504	wont,	-0.102676556
-4.1084504	Konsèy	-0.102676556
-4.2938533	Elèktoral	-0.102676556
-4.2938533	Pwovizwa	-0.102676556
-3.7336912	dezyèm	-0.102676556
-3.4561982	eleksyon	-0.120603085
-3.7336912	senatè	-0.21436185
-3.9911597	dimanch	-0.102676556
-4.1084504	25	-0.102676556
-4.1084504	me	-0.102676556
-4.2938533	1997.	-0.102676556
-4.2938533	Egzaminen	-0.102676556
-4.2938533	Kraponay	-0.102676556
-4.2938533	militan,	-0.102676556
-4.2938533	baton,	-0.102676556
-4.1084504	baboukèt	-0.102676556
-4.2938533	zouti	-0.102676556
-4.2938533	prefere	-0.102676556
-3.7336912	rejim	-0.102676556
-4.2938533	kanson	-0.102676556
-3.9911597	Divalye	-0.102676556
-4.2938533	Mouchavè	-0.102676556
-3.3641527	kouvri	-0.15023157
-3.9911597	Cheba,	-0.1863423
-4.2938533	Bikri	-0.102676556
-4.2938533	noulo	-0.102676556
-4.2938533	dikte	-0.102676556
-4.2938533	chaje	-0.102676556
-4.2938533	3000	-0.102676556
-4.1084504	twati	-0.102676556
-4.2938533	Samson,	-0.102676556
-4.2938533	Kesyon	-0.102676556
-4.2938533	kijan	-0.102676556
-4.2938533	kriminèlyo	-0.102676556
-4.1084504	poul	-0.102676556
-4.2938533	prale,	-0.102676556
-3.9911597	etaj	-0.102676556
-4.2938533	Zanmi	-0.102676556
-4.2938533	Monwa,	-0.102676556
-3.5107486	kisa	-0.13219497
-3.9911597	repwòch,	-0.102676556
-4.2938533	repwoche	-0.102676556
-4.2938533	Lotan	-0.102676556
-4.2938533	Ori	-0.102676556
-4.2938533	Oman.	-0.102676556
-3.7336912	jije	-0.15091968
-3.8436186	fèb	-0.102676556
-4.1084504	papa.	-0.23511535
-4.2938533	fout	-0.102676556
-4.2938533	jennonm.	-0.102676556
-4.2938533	Zabdi,	-0.102676556
-4.2938533	Chefam	-0.102676556
-4.2938533	reskonsab	-0.102676556
-3.5107486	diven	-0.18148333
-4.2938533	soulajman.	-0.102676556
-4.2938533	konpozisyon	-0.102676556
-4.2938533	grad	-0.102676556
-4.1084504	granprèt	-0.102676556
-4.2938533	Keyla	-0.102676556
-4.1084504	Lagrès	-0.102676556
-4.2938533	bagay?	-0.102676556
-3.8436186	rapòte	-0.102676556
-4.2938533	Rebeka	-0.102676556
-4.2938533	Nwaj	-0.102676556
-3.5731487	vide	-0.102676556
-3.9911597	lapli,	-0.102676556
-4.1084504	loraj	-0.102676556
-4.2938533	woule	-0.102676556
-4.1084504	zèklè	-0.102676556
-4.2938533	yanyan	-0.102676556
-3.9911597	bouche	-0.102676556
-4.2938533	Simon,	-0.102676556
-4.2938533	patriyòt	-0.102676556
-4.2938533	Iskaryòt,	-0.102676556
-3.6460435	fondasyon	-0.1424978
-3.8436186	a!	-0.43377748
-3.9911597	granpapa	-0.102676556
-3.5731487	vè	-0.102676556
-4.2938533	9vè	-0.102676556
-4.1084504	mèvèy	-0.102676556
-4.1084504	Legliz	-0.102676556
-4.2938533	Mak,	-0.102676556
-4.2938533	Antouka	-0.102676556
-3.9911597	anndan	-0.102676556
-3.9911597	fakilte	-0.102676556
-4.2938533	kontitisyon	-0.102676556
-3.8436186	inivèsite	-0.16386695
-3.8436186	kan	-0.102676556
-4.2938533	reyini.	-0.102676556
-4.2938533	Tofèt	-0.102676556
-4.2938533	apantaj	-0.102676556
-4.2938533	Soukòt.	-0.102676556
-3.8436186	apòt	-0.16386695
-4.2938533	premye,	-0.102676556
-3.167433	pwofèt	-0.19920312
-4.2938533	dezyèm,	-0.102676556
-4.2938533	twazyèm.	-0.102676556
-4.2938533	ponyen	-0.102676556
-3.6460435	etranje	-0.102676556
-4.2938533	zèb.	-0.102676556
-4.2938533	flote	-0.102676556
-3.6460435	twal	-0.17721209
-4.2938533	grena.	-0.102676556
-3.9911597	Joram,	-0.30883875
-3.8436186	zan	-0.19363749
-3.9911597	Simon	-0.1863423
-4.2938533	Ede	-0.102676556
-3.9911597	solisyon	-0.102676556
-4.2938533	rapo	-0.102676556
-4.2938533	prizon,	-0.102676556
-4.2938533	asistans	-0.102676556
-4.2938533	medikal.	-0.102676556
-4.2938533	Anplis,	-0.102676556
-3.7336912	posib	-0.19363749
-4.1084504	pasaj	-0.102676556
-3.9911597	Efèz,	-0.102676556
-4.2938533	Filip,	-0.102676556
-4.2938533	Kolòs	-0.102676556
-4.2938533	Tesalonik.	-0.102676556
-4.2938533	Lò	-0.102676556
-4.1084504	grenadya	-0.102676556
-4.2938533	edikasyon,	-0.102676556
-4.2938533	plant	-0.102676556
-4.2938533	anvayi.	-0.102676556
-4.2938533	Owoliyab	-0.102676556
-3.5731487	bòs	-0.17335714
-3.8436186	atizan	-0.102676556
-3.9911597	ladrès	-0.102676556
-4.2938533	konesans.	-0.102676556
-4.2938533	Natirèlman	-0.102676556
-4.2938533	kòkay	-0.102676556
-4.2938533	razè	-0.102676556
-4.2938533	grennen	-0.102676556
-4.2938533	chenn,	-0.102676556
-4.2938533	gou	-0.102676556
-4.2938533	Esbon,	-0.102676556
-3.9911597	Bazan	-0.19363749
-4.2938533	Og	-0.102676556
-4.2938533	Prèt	-0.102676556
-4.2938533	garanti,	-0.102676556
-4.1084504	Lòt	-0.102676556
-4.1084504	brase	-0.102676556
-4.2938533	sanse	-0.102676556
-4.1084504	avantaj	-0.102676556
-4.1084504	ekilib	-0.102676556
-4.2938533	fatra,	-0.102676556
-4.2938533	lari,	-0.102676556
-4.2938533	eksziste	-0.102676556
-4.2938533	tanmenbo.	-0.102676556
-4.2938533	planche	-0.102676556
-3.9911597	wotè	-0.102676556
-3.3245423	miray	-0.17637673
-4.2938533	palmis	-0.102676556
-4.2938533	cheriben.	-0.102676556
-4.1084504	sipò	-0.102676556
-4.1084504	inondasyon	-0.102676556
-3.9911597	novanm	-0.102676556
-3.7336912	pwomès	-0.1261286
-3.9911597	chita,	-0.1863423
-4.1084504	triye	-0.102676556
-4.2938533	panyen,	-0.102676556
-3.4561982	lanmè	-0.17637673
-3.8436186	pase,	-0.102676556
-3.8436186	ròch	-0.16386695
-4.2938533	Sanble	-0.102676556
-4.2938533	Cheba	-0.102676556
-4.2938533	Abèl	-0.102676556
-4.1084504	enterese	-0.102676556
-3.8436186	fòk	-0.102676556
-4.2938533	majisyen	-0.102676556
-3.4077413	pòv	-0.18259983
-4.1084504	nonk	-0.102676556
-4.2938533	Bouki.	-0.102676556
-4.2938533	koridò	-0.102676556
-3.8436186	lòj	-0.102676556
-4.2938533	rekòlte	-0.102676556
-3.8436186	Mèt,	-0.16386695
-3.3641527	ede	-0.15359503
-4.1084504	gwo,	-0.102676556
-4.1084504	piti,	-0.102676556
-4.2938533	Etnològ,	-0.102676556
-4.2938533	kilti,	-0.102676556
-4.2938533	pwotektè	-0.102676556
-4.2938533	Lèza	-0.102676556
-4.2938533	Lelèt.	-0.102676556
-4.1084504	gras	-0.102676556
-3.9911597	enpoze	-0.1863423
-4.1084504	Jonatan.	-0.23511535
-4.2938533	pote.	-0.102676556
-3.8436186	panse	-0.16386695
-3.7336912	pwojè	-0.102676556
-4.1084504	Bito	-0.102676556
-3.5107486	mennen	-0.102676556
-4.2938533	privatizasyon	-0.102676556
-4.2938533	iniv	-0.102676556
-3.4077413	mouton	-0.16731536
-4.1084504	fenk	-0.102676556
-4.2938533	pis	-0.102676556
-4.2938533	aterisaj	-0.102676556
-3.8436186	kriminèl	-0.102676556
-4.1084504	machann	-0.102676556
-4.1084504	dwòg.	-0.23511535
-4.2938533	kèpòpòz	-0.102676556
-4.2938533	gwochalè	-0.102676556
-4.2938533	oken	-0.102676556
-4.2938533	nwizans.	-0.102676556
-4.2938533	Adoram	-0.102676556
-4.2938533	kòve	-0.102676556
-3.8436186	reyini	-0.1288143
-4.2938533	janbe	-0.102676556
-4.2938533	Jouden,	-0.102676556
-4.2938533	Zafon.	-0.102676556
-4.2938533	Egzaminasyon	-0.102676556
-4.2938533	egzamine.	-0.102676556
-4.2938533	kacho	-0.102676556
-3.7336912	di.	-0.3443395
-4.2938533	Sara,	-0.102676556
-4.1084504	Abimelèk	-0.102676556
-4.2938533	depasaj.	-0.102676556
-3.9911597	richès	-0.102676556
-4.1084504	atansyon,	-0.102676556
-4.2938533	kalkile,	-0.102676556
-3.9911597	tann	-0.102676556
-4.2938533	sekous	-0.102676556
-4.1084504	ble,	-0.102676556
-4.2938533	pasan,	-0.102676556
-4.2938533	rebò	-0.102676556
-3.7336912	lèz	-0.102676556
-4.1084504	gwoup.	-0.23511535
-4.2938533	Tansèlman,	-0.102676556
-3.5107486	wout	-0.16988216
-4.2938533	konsilte	-0.102676556
-4.2938533	tounant	-0.102676556
-4.2938533	divinò.	-0.102676556
-4.2938533	lolo	-0.102676556
-4.2938533	teknisyen	-0.102676556
-4.1084504	rapid	-0.102676556
-4.2938533	opresto.	-0.102676556
-4.2938533	Atemis,	-0.102676556
-4.2938533	repitasyon	-0.102676556
-4.2938533	Fanm	-0.102676556
-4.2938533	Kòzbi.	-0.102676556
-4.2938533	responsab,	-0.102676556
-3.9911597	asanble	-0.1863423
-4.1084504	revelasyon	-0.102676556
-4.1084504	pe	-0.23511535
-3.8436186	Jewoboram	-0.24742948
-3.6460435	18	-0.13658059
-4.2938533	Abijam	-0.102676556
-4.2938533	Benediksyon	-0.102676556
-4.2938533	donnen	-0.102676556
-4.2938533	zoranj.	-0.102676556
-3.6460435	Gran	-0.1424978
-4.1084504	lye	-0.102676556
-4.2938533	pelerinaj	-0.102676556
-4.1084504	tradisyon	-0.102676556
-4.2938533	remonte	-0.102676556
-3.8436186	jis	-0.102676556
-4.1084504	lane,	-0.102676556
-4.2938533	1950	-0.102676556
-4.1084504	dizyèm	-0.102676556
-4.2938533	Syèk	-0.102676556
-3.8436186	gade,	-0.16386695
-3.9911597	boule.	-0.30883875
-4.2938533	Perèz-Ouza,	-0.102676556
-4.2938533	touswit	-0.102676556
-4.1084504	manke.	-0.23511535
-4.2938533	La	-0.102676556
-3.9911597	chabon	-0.1863423
-4.1084504	lwen,	-0.102676556
-4.2938533	Makout,	-0.102676556
-4.1084504	boujwa	-0.102676556
-4.2938533	restavèk,	-0.102676556
-4.1084504	granmanjè	-0.102676556
-4.2938533	rasazye.	-0.102676556
-3.4561982	kadav	-0.23694962
-4.2938533	Ladan	-0.102676556
-3.7336912	lang	-0.102676556
-4.2938533	grèk	-0.102676556
-4.2938533	Kich,	-0.102676556
-4.2938533	Nè,	-0.102676556
-4.2938533	Nadab,	-0.102676556
-3.9911597	Gedò,	-0.102676556
-4.2938533	Zekè	-0.102676556
-4.2938533	Miklòt	-0.102676556
-4.2938533	Chimea.	-0.102676556
-4.2938533	Petèt	-0.102676556
-4.2938533	silans	-0.102676556
-3.9911597	menas	-0.102676556
-3.9911597	valè	-0.102676556
-3.9911597	ane	-0.1863423
-4.2938533	ougan	-0.102676556
-4.2938533	defi	-0.102676556
-4.1084504	jenn	-0.23511535
-4.2938533	responsabilite	-0.102676556
-4.2938533	Gari	-0.102676556
-4.1084504	Oba	-0.102676556
-4.2938533	Mani	-0.102676556
-4.2938533	konsidere	-0.102676556
-3.9911597	jèn	-0.102676556
-4.2938533	karyè	-0.102676556
-4.2938533	inivèsite,	-0.102676556
-4.2938533	pwofesè,	-0.102676556
-4.1084504	batay.	-0.23511535
-4.2938533	Bekè	-0.102676556
-4.2938533	Zemira,	-0.102676556
-3.9911597	Elyezè,	-0.102676556
-4.2938533	Eliyonayi,	-0.102676556
-4.2938533	Omri,	-0.102676556
-4.1084504	Anatòt	-0.102676556
-4.2938533	Alamèt.	-0.102676556
-3.7336912	siyen	-0.15091968
-4.2938533	solid	-0.102676556
-4.2938533	sètan.	-0.102676556
-4.1084504	krim	-0.23511535
-4.2938533	lajounen	-0.102676556
-4.2938533	rebèl,	-0.102676556
-4.2938533	wòklò.	-0.102676556
-4.2938533	nasyon.	-0.102676556
-4.2938533	Mayama	-0.102676556
-4.2938533	Ganndi	-0.102676556
-4.2938533	ak,	-0.102676556
-4.2938533	Matin	-0.102676556
-4.2938533	Litè	-0.102676556
-4.2938533	King	-0.102676556
-4.2938533	Ozetazini,	-0.102676556
-4.2938533	Nèlsonn	-0.102676556
-4.2938533	Manndela	-0.102676556
-4.2938533	Afrik	-0.102676556
-4.2938533	disid,	-0.102676556
-4.1084504	Gera,	-0.102676556
-4.2938533	koute:	-0.102676556
-4.2938533	Pwofèt	-0.102676556
-3.8436186	anyen,	-0.102676556
-3.8436186	chat	-0.102676556
-4.2938533	kraze.	-0.102676556
-4.2938533	Fwontyè	-0.102676556
-4.2938533	Aza	-0.102676556
-4.1084504	Enan	-0.102676556
-4.2938533	Chefam.	-0.102676556
-4.2938533	Achera,	-0.102676556
-4.2938533	kotey	-0.102676556
-4.2938533	prekosyon	-0.102676556
-4.2938533	sadiseyen	-0.102676556
-3.9911597	grave	-0.102676556
-3.9911597	so	-0.102676556
-4.2938533	bag.	-0.102676556
-3.5107486	vèv	-0.14991918
-4.2938533	Chela,	-0.102676556
-4.2938533	gran.	-0.102676556
-4.2938533	egzije	-0.102676556
-4.2938533	ekskiz	-0.102676556
-4.2938533	menase	-0.102676556
-4.2938533	Frèd	-0.102676556
-4.2938533	palman	-0.102676556
-4.2938533	deside.	-0.102676556
-3.8436186	grandi	-0.24742948
-4.1084504	vre?	-0.23511535
-4.2938533	preval	-0.102676556
-3.9911597	aksyon	-0.102676556
-3.6460435	anpeche	-0.102676556
-4.2938533	denonse.	-0.102676556
-4.1084504	kouzen	-0.102676556
-4.2938533	Zaka.	-0.102676556
-3.9911597	patisipan	-0.1863423
-3.9911597	moman	-0.102676556
-4.2938533	siyifikativ	-0.102676556
-3.8436186	lis	-0.102676556
-4.1084504	Zowobabèl,	-0.102676556
-4.2938533	Chealtyèl	-0.102676556
-4.2938533	Jozye.	-0.102676556
-4.2938533	chandèl	-0.102676556
-3.8436186	chen	-0.102676556
-3.9911597	latè,	-0.102676556
-3.3245423	sa.	-0.91089875
-3.9911597	pay	-0.102676556
-4.2938533	chèch.	-0.102676556
-4.2938533	Bèlfifi	-0.102676556
-4.1084504	pandye	-0.102676556
-4.1084504	vwazin	-0.102676556
-3.6460435	on	-0.17941746
-4.2938533	sitwon.	-0.102676556
-4.2938533	Anfen,	-0.102676556
-4.1084504	priyè	-0.102676556
-4.2938533	defi.	-0.102676556
-4.2938533	kokobe,	-0.102676556
-4.2938533	pwomne	-0.102676556
-4.2938533	Chandmas,	-0.102676556
-4.2938533	Tijo	-0.102676556
-4.2938533	Bwavèna	-0.102676556
-4.1084504	fasil	-0.102676556
-4.1084504	reprezante	-0.102676556
-3.9911597	estil	-0.102676556
-4.2938533	finisman	-0.102676556
-4.1084504	11zyèm	-0.102676556
-4.1084504	syèk	-0.102676556
-4.2938533	Sefavayim	-0.102676556
-4.2938533	Adramelèk	-0.102676556
-4.2938533	Anamelèk,	-0.102676556
-3.9911597	retire	-0.102676556
-4.1084504	la;	-0.102676556
-4.2938533	enspekte	-0.102676556
-4.2938533	Ewòl	-0.102676556
-4.2938533	Pyè.	-0.102676556
-4.1084504	Y	-0.16386695
-4.2938533	degoutans	-0.102676556
-3.5107486	akòz	-0.102676556
-4.1084504	toutan	-0.102676556
-4.2938533	zidòl.	-0.102676556
-3.9911597	toujou.	-0.30883875
-4.2938533	Ala,	-0.102676556
-4.2938533	Abò	-0.102676556
-4.2938533	Gozan	-0.102676556
-4.2938533	prèv	-0.102676556
-3.5731487	montre	-0.102676556
-3.7336912	okipe	-0.102676556
-4.1084504	polis	-0.102676556
-3.7336912	lave	-0.102676556
-4.2938533	Kretyen	-0.102676556
-4.2938533	anfaz	-0.102676556
-3.9911597	enpòtans	-0.1863423
-4.1084504	swen	-0.102676556
-4.2938533	konsève	-0.102676556
-4.2938533	jès	-0.102676556
-4.2938533	relyèf	-0.102676556
-4.2938533	group	-0.102676556
-4.2938533	militè	-0.102676556
-4.1084504	sivil,	-0.102676556
-4.2938533	alòske	-0.102676556
-4.1084504	atò,	-0.102676556
-3.9911597	banm	-0.102676556
-4.2938533	kach	-0.102676556
-4.1084504	temwen	-0.102676556
-4.2938533	6zyèm	-0.102676556
-4.2938533	gwosès	-0.102676556
-4.2938533	Elizabèt	-0.102676556
-4.1084504	Galile	-0.102676556
-4.2938533	Nazarèt.	-0.102676556
-4.2938533	430	-0.102676556
-4.2938533	Barak,	-0.102676556
-4.2938533	Abinoram,	-0.102676556
-4.1084504	Kadès	-0.102676556
-4.1084504	Neftali	-0.102676556
-4.1084504	Kisa	-0.102676556
-3.9911597	ou?	-0.30883875
-4.2938533	gadkò	-0.102676556
-4.2938533	Elize	-0.102676556
-4.2938533	Sitiyasyon	-0.102676556
-4.1084504	enperyalis	-0.23511535
-4.1084504	meriken	-0.102676556
-4.2938533	plèzi	-0.102676556
-4.2938533	rezeve	-0.102676556
-4.2938533	fonse	-0.102676556
-4.2938533	kwè:	-0.102676556
-4.2938533	rizib	-0.102676556
-3.9911597	vwayaj	-0.1863423
-4.2938533	poukò	-0.102676556
-3.9911597	pwoteje	-0.102676556
-3.9911597	vwazen	-0.102676556
-4.2938533	pyebwa.	-0.102676556
-4.2938533	kontak	-0.102676556
-4.2938533	Fineyas,	-0.102676556
-4.2938533	Eleyaza,	-0.102676556
-4.2938533	Elyezè	-0.102676556
-4.2938533	Jorim,	-0.102676556
-4.2938533	Jorim	-0.102676556
-4.2938533	Matat,	-0.102676556
-4.2938533	Matat	-0.102676556
-4.2938533	Levi.	-0.102676556
-3.3641527	chonje	-0.22246984
-3.5107486	gode	-0.16904986
-3.6460435	kòlè	-0.102676556
-3.9911597	kole	-0.102676556
-4.2938533	kretyen	-0.102676556
-3.9911597	egzanp	-0.102676556
-4.2938533	Levanjil	-0.102676556
-4.1084504	Mikayèl,	-0.102676556
-4.2938533	Jorayi,	-0.102676556
-4.2938533	Jakan,	-0.102676556
-4.2938533	Zya	-0.102676556
-4.2938533	Ebè.	-0.102676556
-4.2938533	Ziglag.	-0.102676556
-4.2938533	gal	-0.102676556
-4.2938533	nèsin,	-0.102676556
-4.2938533	konpare	-0.102676556
-3.6460435	inonsan	-0.102676556
-3.9911597	repons	-0.102676556
-4.2938533	bay:	-0.102676556
-4.2938533	jalouzi	-0.102676556
-3.8436186	chase	-0.15091968
-4.2938533	Bi	-0.102676556
-3.9911597	parabòl	-0.1863423
-4.1084504	pwochen	-0.102676556
-4.2938533	trete	-0.102676556
-4.2938533	lèzòt	-0.102676556
-4.2938533	Gadi,	-0.102676556
-4.2938533	Souzi	-0.102676556
-4.2938533	sikonsi,	-0.102676556
-4.2938533	Achpenaz,	-0.102676556
-3.9911597	kòmandan	-0.102676556
-4.1084504	Danyèl,	-0.102676556
-4.2938533	krabinen	-0.102676556
-3.8436186	piye	-0.1424978
-4.2938533	kadejak	-0.102676556
-3.9911597	Zadòk,	-0.30883875
-4.1084504	Natan,	-0.102676556
-4.2938533	Giyon	-0.102676556
-4.2938533	wa.	-0.102676556
-4.1084504	Gèchon	-0.102676556
-4.2938533	Joèl,	-0.102676556
-4.1084504	tande,	-0.102676556
-3.8436186	towo	-0.23511535
-4.2938533	belye	-0.102676556
-4.2938533	Kòripsyon	-0.102676556
-4.2938533	Leta,	-0.102676556
-4.2938533	kòripsyon	-0.102676556
-4.2938533	tribinal.	-0.102676556
-3.9911597	veso	-0.102676556
-3.9911597	twonpèt	-0.102676556
-4.2938533	siyal	-0.102676556
-4.2938533	konfime	-0.102676556
-4.2938533	pwogrè	-0.102676556
-3.5731487	elèv	-0.15662643
-4.2938533	Gebè,	-0.102676556
-4.1084504	Siyon,	-0.23511535
-3.8436186	Og,	-0.43377748
-3.9911597	toupatou.	-0.30883875
-4.2938533	Kanta	-0.102676556
-4.1084504	boulvèse	-0.23511535
-4.2938533	keksyon	-0.102676556
-4.1084504	chatre	-0.102676556
-4.1084504	aprèmidi,	-0.102676556
-4.2938533	3zè,	-0.102676556
-4.1084504	vizyon	-0.102676556
-4.1084504	aklè	-0.102676556
-4.2938533	ajoute	-0.102676556
-4.1084504	envèsti	-0.102676556
-4.2938533	modènizasyon	-0.102676556
-4.2938533	vanse,	-0.102676556
-4.1084504	chè.	-0.23511535
-3.9911597	direksyon	-0.102676556
-4.2938533	Chita	-0.102676556
-4.2938533	Serera	-0.102676556
-4.2938533	Meola,	-0.102676556
-4.2938533	Tabat.	-0.102676556
-4.2938533	pede	-0.102676556
-3.9911597	kochon	-0.102676556
-4.2938533	jije.	-0.102676556
-4.1084504	sòm	-0.102676556
-4.2938533	Asaf.	-0.102676556
-4.2938533	Chante	-0.102676556
-3.7336912	mechan	-0.15091968
-4.1084504	kontan,	-0.102676556
-4.2938533	rizib.	-0.102676556
-4.2938533	Wòch	-0.102676556
-4.2938533	Rimon	-0.102676556
-4.2938533	mwa.	-0.102676556
-4.1084504	gonfle	-0.1863423
-4.2938533	lestonmak	-0.102676556
-4.1084504	Lejip.	-0.23511535
-4.2938533	madanm?	-0.102676556
-4.2938533	boulvès	-0.102676556
-4.2938533	jistifye	-0.102676556
-4.2938533	moyens	-0.102676556
-3.7336912	Salomon,	-0.21436185
-4.2938533	Domestik	-0.102676556
-3.9911597	limen	-0.102676556
-4.1084504	frèt.	-0.23511535
-4.2938533	Kadès-Baneya,	-0.102676556
-4.2938533	Seyi	-0.102676556
-4.2938533	Ouzyèl	-0.102676556
-4.2938533	Aminadad,	-0.102676556
-4.2938533	egzakteman	-0.102676556
-3.5731487	sitiyasyon	-0.2605843
-4.1084504	sòti.	-0.23511535
-4.1084504	dragon	-0.102676556
-4.2938533	Toujou	-0.102676556
-4.2938533	Lamontay	-0.102676556
-4.2938533	anmwe	-0.102676556
-4.1084504	komès	-0.102676556
-3.8436186	jistis	-0.16386695
-4.2938533	Sidès	-0.102676556
-3.9911597	konpè	-0.102676556
-4.1084504	pale,	-0.16386695
-4.2938533	fenèt	-0.102676556
-3.9911597	lyon	-0.16386695
-4.1084504	parèt.	-0.23511535
-4.1084504	Tasis	-0.102676556
-4.2938533	Lespay	-0.102676556
-4.1084504	kòmès	-0.102676556
-4.2938533	kantite.	-0.102676556
-4.2938533	antrave	-0.102676556
-4.2938533	Jeyèl,	-0.102676556
-4.1084504	Zakari,	-0.102676556
-3.9911597	Bela,	-0.102676556
-4.2938533	Aza,	-0.102676556
-4.2938533	Chema	-0.102676556
-4.2938533	Jorèl.	-0.102676556
-4.2938533	Joumou	-0.102676556
-4.1084504	eleman	-0.102676556
-4.2938533	prensipal	-0.102676556
-4.2938533	soup	-0.102676556
-4.2938533	apa.	-0.102676556
-3.9911597	sis	-0.102676556
-4.2938533	pyè,	-0.102676556
-3.9911597	laj	-0.102676556
-4.2938533	Elyoenayi	-0.102676556
-4.2938533	gason:	-0.102676556
-4.2938533	Odavya,	-0.102676556
-4.2938533	Pelaya,	-0.102676556
-4.2938533	Akoub,	-0.102676556
-4.2938533	Joanan,	-0.102676556
-4.2938533	Delaya	-0.102676556
-4.2938533	Anani.	-0.102676556
-4.2938533	Efata!	-0.102676556
-4.2938533	Latou,	-0.102676556
-4.2938533	demare	-0.102676556
-4.1084504	trè	-0.102676556
-3.7336912	byen.	-0.5306875
-3.8436186	Jozye	-0.16386695
-4.2938533	Gabriyel	-0.102676556
-3.9911597	dirijan	-0.102676556
-4.1084504	Edikasyon	-0.102676556
-3.9911597	responsablite	-0.15091968
-3.5731487	6	-0.102676556
-4.2938533	asosyasyon	-0.102676556
-4.1084504	atis	-0.102676556
-4.2938533	tablo	-0.102676556
-3.6460435	patisipe	-0.60986876
-4.2938533	Adonija	-0.102676556
-4.2938533	Zoelèt	-0.102676556
-4.2938533	Anwogèl.	-0.102676556
-4.2938533	Ougan	-0.102676556
-3.9911597	Ekzayis	-0.102676556
-4.2938533	Popilasyon	-0.102676556
-3.8436186	denonse	-0.15091968
-4.1084504	konpòtman	-0.102676556
-4.1084504	Renòl	-0.102676556
-4.2938533	Anri	-0.102676556
-4.1084504	Kristòf	-0.102676556
-4.2938533	Otwou.	-0.102676556
-3.9911597	obeyisans	-0.1863423
-3.7336912	ministè	-0.102676556
-4.2938533	efikas	-0.102676556
-4.2938533	Pèp	-0.102676556
-4.2938533	Ayisyen,	-0.102676556
-4.1084504	Konstitisyon	-0.102676556
-3.6460435	chay	-0.102676556
-4.2938533	drapo	-0.102676556
-4.1084504	lespwa	-0.102676556
-3.5107486	kòm	-0.1288143
-4.2938533	dwa.	-0.102676556
-4.2938533	Voye	-0.102676556
-4.2938533	Esmen,	-0.102676556
-4.2938533	Pègam,	-0.102676556
-4.2938533	Tiyati,	-0.102676556
-4.2938533	Sad,	-0.102676556
-4.2938533	Filadèlfi	-0.102676556
-4.2938533	Lawodise.	-0.102676556
-3.9911597	Benaja,	-0.102676556
-3.8436186	vanyan	-0.15091968
-3.9911597	vag	-0.102676556
-4.2938533	lenkondite	-0.102676556
-4.1084504	mès	-0.102676556
-4.1084504	itil	-0.102676556
-4.2938533	Nèftali	-0.102676556
-3.9911597	Kanaran	-0.16386695
-4.2938533	Chemèch,	-0.102676556
-4.2938533	Anat.	-0.102676556
-3.9911597	rekonpans	-0.102676556
-4.2938533	etènèl,	-0.102676556
-3.9911597	egziste	-0.1863423
-4.2938533	diferan.	-0.102676556
-4.2938533	relayon	-0.102676556
-3.7336912	nonmen	-0.15091968
-4.2938533	pouvwa.	-0.102676556
-4.2938533	adorasyon,	-0.102676556
-4.2938533	vinèg	-0.102676556
-3.9911597	vwayaje	-0.1863423
-4.2938533	zile	-0.102676556
-4.2938533	Manman	-0.102676556
-4.2938533	Efziba.	-0.102676556
-4.1084504	Enben,	-0.13658059
-4.2938533	deja,	-0.102676556
-4.1084504	pifò	-0.102676556
-4.2938533	Gade	-0.102676556
-4.1084504	viv,	-0.102676556
-4.2938533	Ap	-0.102676556
-3.9911597	lwen.	-0.30883875
-3.9911597	bon,	-0.102676556
-3.4561982	Lespri	-0.46963435
-4.2938533	renmen,	-0.102676556
-4.2938533	pasyans,	-0.102676556
-4.1084504	kè,	-0.102676556
-4.2938533	seryezite,	-0.102676556
-4.2938533	mannyè.	-0.102676556
-4.2938533	degonfle	-0.102676556
-3.9911597	twòp	-0.102676556
-3.4561982	nouvo	-0.102676556
-4.2938533	Dènye	-0.102676556
-4.1084504	evènman	-0.102676556
-4.2938533	apse	-0.102676556
-4.2938533	bouyi	-0.102676556
-4.2938533	ògàn	-0.102676556
-4.1084504	ouvriye	-0.102676556
-4.2938533	djòb.	-0.102676556
-4.2938533	Iba,	-0.102676556
-4.2938533	Elichwa,	-0.102676556
-4.2938533	Elpelèt,	-0.102676556
-4.2938533	Noga,	-0.102676556
-4.2938533	Nefèg,	-0.102676556
-4.2938533	Jafya,	-0.102676556
-4.1084504	Elichama,	-0.102676556
-4.2938533	Elyada,	-0.102676556
-4.2938533	Elifelèt.	-0.102676556
-4.2938533	fleri,	-0.102676556
-4.2938533	rekòlte.	-0.102676556
-4.1084504	travès	-0.102676556
-4.1084504	ankadreman	-0.102676556
-4.2938533	Zowobabèl!	-0.102676556
-4.1084504	Pè	-0.102676556
-4.2938533	Masak	-0.102676556
-4.2938533	Lwès	-0.102676556
-3.6460435	kandida	-0.1424978
-4.2938533	reflechi	-0.102676556
-4.2938533	enflyans	-0.102676556
-4.2938533	Rivyè	-0.102676556
-4.2938533	125	-0.102676556
-4.1084504	Ichbochèt,	-0.1863423
-3.6460435	Sayil	-0.19363749
-3.9911597	40	-0.102676556
-4.2938533	Izrayèl.	-0.102676556
-4.2938533	konpwomi	-0.102676556
-4.1084504	reyalis,	-0.102676556
-4.2938533	demagoji.	-0.102676556
-4.2938533	Jedi	-0.102676556
-4.2938533	dawou	-0.102676556
-4.2938533	Franswa.	-0.102676556
-4.2938533	Bèljik,	-0.102676556
-4.2938533	Zayiwa	-0.102676556
-4.2938533	prese.	-0.102676556
-4.2938533	Doktè	-0.102676556
-4.2938533	Kantav,	-0.102676556
-4.2938533	jeneral,	-0.102676556
-4.2938533	Ayiti.	-0.102676556
-4.2938533	Pandanstan	-0.102676556
-4.2938533	refijye	-0.102676556
-4.2938533	estasyon	-0.102676556
-4.1084504	radyo,	-0.102676556
-4.2938533	lenjistis	-0.102676556
-3.9911597	pwent	-0.16386695
-4.2938533	Samyèl	-0.102676556
-4.2938533	Jowèl,	-0.102676556
-4.2938533	Nasyon	-0.102676556
-4.2938533	nasyon,	-0.102676556
-4.1084504	lavil,	-0.102676556
-4.2938533	Senakerib,	-0.102676556
-3.9911597	ri	-0.102676556
-4.2938533	Diven	-0.102676556
-4.2938533	pwazon	-0.102676556
-4.2938533	sèpan,	-0.102676556
-4.2938533	venen	-0.102676556
-3.7336912	sèpan	-0.102676556
-4.2938533	aspik	-0.102676556
-4.1084504	fyèv	-0.102676556
-3.9911597	lannwit	-0.102676556
-4.1084504	Aman,	-0.23511535
-4.2938533	Amedata,	-0.102676556
-4.2938533	Agag	-0.102676556
-4.2938533	Karabin	-0.102676556
-4.2938533	wou.	-0.102676556
-4.2938533	envante	-0.102676556
-4.1084504	Responsab	-0.102676556
-4.1084504	jefò	-0.102676556
-3.8436186	ranje	-0.102676556
-4.2938533	ponp	-0.102676556
-4.2938533	defen	-0.102676556
-4.2938533	lagrikilti	-0.102676556
-4.2938533	anviwònman	-0.102676556
-4.2938533	Ya	-0.102676556
-4.2938533	bat,	-0.102676556
-4.2938533	soudè,	-0.102676556
-3.6460435	avèg	-0.1424978
-3.4561982	map	-0.1261286
-4.2938533	zòtèy	-0.102676556
-4.1084504	pye.	-0.23511535
-4.2938533	Fòs	-0.102676556
-4.2938533	laltitid	-0.102676556
-4.2938533	bòla	-0.102676556
-4.2938533	fouti	-0.102676556
-4.2938533	tanperati	-0.102676556
-4.2938533	zewo	-0.102676556
-4.2938533	ane.	-0.102676556
-4.2938533	pèsekisyon	-0.102676556
-4.1084504	Etyèn	-0.102676556
-4.2938533	gaye.	-0.102676556
-3.6460435	domestik	-0.13658059
-4.1084504	jaden,	-0.102676556
-4.2938533	Pwoche	-0.102676556
-4.2938533	vit,	-0.102676556
-4.1084504	kidonk	-0.102676556
-4.2938533	Viksama	-0.102676556
-4.1084504	rankont	-0.102676556
-4.2938533	zèl,	-0.102676556
-4.2938533	vole.	-0.102676556
-4.2938533	Bejamen	-0.102676556
-4.2938533	Dipi,	-0.102676556
-4.2938533	Popilè	-0.102676556
-4.2938533	Ziklag	-0.102676556
-3.7336912	nèt.	-0.5306875
-4.2938533	Nonm	-0.102676556
-4.2938533	pawòl.	-0.102676556
-4.2938533	Jòdi	-0.102676556
-4.1084504	nòs,	-0.102676556
-3.9911597	atè.	-0.30883875
-4.2938533	1996,	-0.102676556
-4.2938533	pwogresis,	-0.102676556
-4.2938533	trase	-0.102676556
-3.9911597	chimen	-0.102676556
-4.2938533	ankwa.	-0.102676556
-4.2938533	Oubyen,	-0.102676556
-4.1084504	petèt	-0.102676556
-4.1084504	divize	-0.102676556
-4.1084504	fòme	-0.102676556
-4.2938533	mezon.	-0.102676556
-4.2938533	Kande	-0.102676556
-3.9911597	konferans	-0.102676556
-3.6460435	youn	-0.1424978
-4.2938533	rèl	-0.102676556
-4.2938533	Elealè,	-0.102676556
-4.2938533	Jaaz,	-0.102676556
-4.2938533	Zoa	-0.102676556
-4.2938533	Owonayim	-0.102676556
-4.2938533	Eglat-Chelichya.	-0.102676556
-4.1084504	kriye	-0.102676556
-3.7336912	enpòtan	-0.1424978
-3.9911597	karaktè	-0.102676556
-4.2938533	Bouki	-0.102676556
-4.1084504	sòt	-0.102676556
-4.2938533	nayif.	-0.102676556
-3.5107486	granmoun	-0.16115387
-4.2938533	Osinon,	-0.102676556
-4.2938533	rekòmandasyon	-0.102676556
-3.8436186	nou?	-0.43377748
-4.2938533	twazan,	-0.102676556
-4.1084504	barik	-0.102676556
-4.2938533	farin,	-0.102676556
-3.8436186	po	-0.102676556
-3.9911597	diven.	-0.30883875
-3.8436186	Jezikri,	-0.15091968
-3.8436186	mèsi	-0.102676556
-4.2938533	dèske	-0.102676556
-4.2938533	misye	-0.102676556
-4.2938533	dèt	-0.102676556
-4.1084504	sid	-0.102676556
-4.2938533	malen	-0.102676556
-4.2938533	malen.	-0.102676556
-4.2938533	Atout	-0.102676556
-4.1084504	mechan.	-0.23511535
-4.2938533	etranje,	-0.102676556
-4.2938533	vwayajè	-0.102676556
-4.2938533	Disip	-0.102676556
-3.9911597	pati,	-0.102676556
-4.2938533	bouk,	-0.102676556
-3.8436186	geri	-0.1424978
-3.8436186	malad	-0.16386695
-4.2938533	Lamenm,	-0.102676556
-3.7336912	tanmen	-0.102676556
-3.8436186	chante,	-0.16386695
-4.2938533	lavèy	-0.102676556
-4.2938533	antre,	-0.102676556
-4.2938533	Kònèy	-0.102676556
-3.8436186	femèl	-0.102676556
-4.2938533	ransèyman	-0.102676556
-4.2938533	asire	-0.102676556
-3.9911597	rann	-0.102676556
-4.2938533	difisil.	-0.102676556
-4.1084504	kritik	-0.102676556
-4.1084504	Konakòm,	-0.102676556
-4.2938533	panzouyis,	-0.102676556
-3.9911597	djòb	-0.102676556
-4.2938533	defakto.	-0.102676556
-4.2938533	Tou	-0.102676556
-4.1084504	zo	-0.102676556
-4.1084504	frans	-0.102676556
-4.1084504	Jerizalèm,	-0.102676556
-4.2938533	bandjo	-0.102676556
-4.2938533	twonpèt.	-0.102676556
-4.2938533	60,	-0.102676556
-4.2938533	Oubyen	-0.102676556
-4.2938533	fiyanse	-0.102676556
-4.1084504	fidèl	-0.23511535
-3.9911597	kabrit,	-0.16386695
-4.2938533	likè,	-0.102676556
-4.2938533	Prisil	-0.102676556
-4.2938533	Akilas	-0.102676556
-4.2938533	korèk.	-0.102676556
-4.1084504	Sayil,	-0.102676556
-4.1084504	Jonatan,	-0.23511535
-3.8436186	David.	-0.43377748
-4.2938533	ranfòse	-0.102676556
-4.2938533	ranpa	-0.102676556
-4.2938533	lou,	-0.102676556
-3.7336912	cheve	-0.15091968
-4.2938533	kòche.	-0.102676556
-3.9911597	fanmi.	-0.30883875
-4.2938533	deplase	-0.102676556
-4.2938533	nò.	-0.102676556
-4.1084504	Wa,	-0.102676556
-3.6460435	byen,	-0.1424978
-4.2938533	frize	-0.102676556
-4.2938533	lougawou.	-0.102676556
-3.5107486	regleman	-0.13219497
-4.2938533	merite.	-0.102676556
-4.2938533	total	-0.102676556
-4.2938533	41	-0.102676556
-3.9911597	Okay	-0.102676556
-4.2938533	etone	-0.102676556
-3.8436186	wo	-0.102676556
-4.2938533	Noba	-0.102676556
-4.2938533	Kenat	-0.102676556
-3.8436186	anvayi	-0.102676556
-3.9911597	chamo	-0.102676556
-4.2938533	tanpri	-0.102676556
-4.1084504	Sentespri,	-0.102676556
-4.2938533	espwa.	-0.102676556
-4.2938533	Basmat	-0.102676556
-4.1084504	Reouyèl,	-0.102676556
-4.2938533	òlibama	-0.102676556
-3.7336912	Jeouch,	-0.3443395
-4.2938533	Jalam	-0.102676556
-4.1084504	Kore.	-0.23511535
-4.2938533	posibilite	-0.102676556
-4.2938533	devlopman	-0.102676556
-4.1084504	ekonomik	-0.102676556
-4.2938533	20.000	-0.102676556
-4.2938533	Bètreyòb	-0.102676556
-4.2938533	Zoba	-0.102676556
-4.2938533	12.000	-0.102676556
-4.2938533	Tòb.	-0.102676556
-4.2938533	Raab,	-0.102676556
-4.2938533	lèd	-0.102676556
-4.2938533	Jozafa,	-0.102676556
-4.2938533	kòmansman	-0.102676556
-3.9911597	rèy	-0.16386695
-4.2938533	bay.	-0.102676556
-3.7336912	don	-0.29354307
-4.2938533	espesyal	-0.102676556
-4.2938533	Pikan	-0.102676556
-4.2938533	kwòkachen	-0.102676556
-4.2938533	chadwon	-0.102676556
-4.1084504	enskri	-0.102676556
-3.8436186	fwa,	-0.102676556
-4.1084504	Asaf	-0.102676556
-4.2938533	Bekè,	-0.102676556
-4.1084504	Achbèl,	-0.102676556
-4.2938533	Naaman,	-0.102676556
-4.2938533	Ei,	-0.102676556
-4.2938533	Wòch,	-0.102676556
-4.2938533	Moupen,	-0.102676556
-4.2938533	Oupim	-0.102676556
-4.2938533	Ad.	-0.102676556
-4.1084504	siperyè	-0.102676556
-4.2938533	violèt	-0.102676556
-3.9911597	fen	-0.1863423
-3.5731487	blan	-0.1288143
-4.2938533	tise	-0.102676556
-4.1084504	sere.	-0.23511535
-4.2938533	laman	-0.102676556
-4.2938533	Tola	-0.102676556
-4.2938533	Pouva	-0.102676556
-4.2938533	Yachoub	-0.102676556
-4.2938533	Chimwon	-0.102676556
-4.1084504	rivyè	-0.102676556
-4.2938533	richès,	-0.102676556
-4.1084504	nou!	-0.23511535
-3.8436186	sistèm	-0.102676556
-4.2938533	pèz	-0.102676556
-4.2938533	Bavayi,	-0.102676556
-4.2938533	Enadad,	-0.102676556
-4.2938533	Arawon,	-0.102676556
-4.2938533	admèt	-0.102676556
-3.9911597	ansasinen	-0.1863423
-4.1084504	penyen	-0.23511535
-4.2938533	souri,	-0.102676556
-4.1084504	beni	-0.102676556
-4.1084504	Pi	-0.102676556
-4.2938533	Ewòd,	-0.102676556
-4.2938533	sèlman.	-0.102676556
-4.2938533	gremesi	-0.102676556
-3.8436186	verite	-0.16386695
-3.7336912	vole	-0.15091968
-4.2938533	Sedesyas	-0.102676556
-4.2938533	Nebikadneza	-0.102676556
-4.2938533	lennmi	-0.102676556
-4.1084504	pèsonèl	-0.102676556
-4.2938533	debaz	-0.102676556
-3.8436186	Jezikri	-0.16386695
-4.2938533	enjenyè	-0.102676556
-4.1084504	machin	-0.1863423
-3.9911597	wòch.	-0.30883875
-4.2938533	Rive	-0.102676556
-4.2938533	Prizil	-0.102676556
-4.2938533	Akilas,	-0.102676556
-3.9911597	diskite	-0.1863423
-4.2938533	Bò	-0.102676556
-4.2938533	Frank	-0.102676556
-4.2938533	Pradèl	-0.102676556
-4.2938533	ekspoze	-0.102676556
-4.1084504	pwodwi	-0.102676556
-4.1084504	reyalize	-0.102676556
-4.2938533	fòje	-0.102676556
-4.2938533	Pwoblèm	-0.102676556
-4.2938533	ekipman	-0.102676556
-4.1084504	souvan	-0.102676556
-4.2938533	kòdyòm,	-0.102676556
-4.2938533	Fè	-0.102676556
-4.2938533	pòz,	-0.102676556
-4.1084504	Malis	-0.102676556
-4.2938533	Bila	-0.102676556
-4.2938533	Zilpa,	-0.102676556
-4.2938533	zwezo	-0.102676556
-3.9911597	vini.	-0.30883875
-4.2938533	Figi	-0.102676556
-4.2938533	sadwàn	-0.102676556
-4.2938533	Ikonyòm,	-0.102676556
-4.2938533	Banabas	-0.102676556
-4.2938533	solid.	-0.102676556
-3.7336912	limit	-0.1424978
-4.1084504	nominasyon	-0.102676556
-4.2938533	ofisye	-0.102676556
-4.1084504	Mesye	-0.102676556
-3.5731487	prezidan	-0.2605843
-4.2938533	ateri	-0.102676556
-4.2938533	Langranj.	-0.102676556
-4.2938533	Nasyonal,	-0.102676556
-4.2938533	entèvansyon	-0.102676556
-4.1084504	okipasyon	-0.102676556
-4.2938533	ranplase	-0.102676556
-4.2938533	gout	-0.102676556
-4.2938533	lan?	-0.102676556
-4.2938533	Asayèl,	-0.102676556
-4.1084504	tonm	-0.102676556
-4.2938533	Betleyèm.	-0.102676556
-4.2938533	chwal,	-0.102676556
-4.2938533	rankontre	-0.102676556
-4.2938533	enkouraje	-0.102676556
-4.2938533	mande.	-0.102676556
-3.7336912	twonpe	-0.102676556
-3.9911597	longè	-0.102676556
-4.2938533	mamit.	-0.102676556
-4.2938533	Ekri	-0.102676556
-4.1084504	Ti,	-0.102676556
-4.1084504	divès	-0.102676556
-3.7336912	fonksyone	-0.13219497
-4.1084504	pakèt	-0.102676556
-4.1084504	sere,	-0.102676556
-3.9911597	senkant	-0.1863423
-4.2938533	longè.	-0.102676556
-4.2938533	Achte	-0.102676556
-4.2938533	toutouni.	-0.102676556
-4.2938533	kivèt	-0.102676556
-3.9911597	Ma	-0.102676556
-4.1084504	anlè,	-0.102676556
-4.2938533	jwi	-0.102676556
-3.8436186	16	-0.24742948
-4.1084504	debake	-0.102676556
-4.1084504	pèsonn	-0.102676556
-4.2938533	atann	-0.102676556
-4.2938533	Monsenyè	-0.102676556
-4.2938533	Wili	-0.102676556
-4.2938533	Womelis	-0.102676556
-3.9911597	pasyans	-0.102676556
-3.6460435	rezilta	-0.102676556
-4.2938533	Lamarye	-0.102676556
-4.2938533	pare.	-0.102676556
-4.2938533	benefis	-0.102676556
-4.2938533	Zèl	-0.102676556
-4.1084504	diktatè	-0.102676556
-4.1084504	sanmanman	-0.102676556
-4.1084504	Franswa	-0.102676556
-4.2938533	reve	-0.102676556
-4.2938533	atis,	-0.102676556
-4.2938533	poèt.	-0.102676556
-4.2938533	Ezanp	-0.102676556
-4.2938533	rekòmande	-0.102676556
-4.2938533	apwouve	-0.102676556
-4.2938533	mezon	-0.102676556
-4.2938533	L	-0.102676556
-4.2938533	moniman	-0.102676556
-4.2938533	Eliopolis	-0.102676556
-4.1084504	Lejip,	-0.102676556
-4.2938533	Lang	-0.102676556
-4.1084504	letandi	-0.102676556
-4.2938533	eki	-0.102676556
-4.2938533	pratikman	-0.102676556
-3.9911597	Ayisyen	-0.102676556
-4.2938533	natal.	-0.102676556
-4.2938533	gwonèg	-0.102676556
-4.2938533	gwosè	-0.102676556
-3.9911597	wòl	-0.102676556
-4.2938533	moulen,	-0.102676556
-4.1084504	Damas	-0.102676556
-4.2938533	Tiglat	-0.102676556
-4.2938533	Pilesè,	-0.102676556
-4.2938533	Levi,	-0.102676556
-4.2938533	Mèlki,	-0.102676556
-4.2938533	Mèlki	-0.102676556
-4.2938533	Janayi,	-0.102676556
-4.2938533	Janayi	-0.102676556
-4.2938533	temwen?	-0.102676556
-4.2938533	Antyòch	-0.102676556
-3.7336912	Sentespri	-0.20519942
-3.9911597	wè,	-0.102676556
-3.8436186	Jezi.	-0.43377748
-4.2938533	panyen	-0.102676556
-4.1084504	gato	-0.102676556
-4.1084504	rale.	-0.23511535
-4.1084504	gadyen	-0.102676556
-4.2938533	pran.	-0.102676556
-3.8436186	Jewoboram,	-0.21436185
-4.2938533	Maon	-0.102676556
-4.2938533	Kadès,	-0.102676556
-3.9911597	Ò	-0.1863423
-4.2938533	konplimante	-0.102676556
-4.2938533	Msye	-0.102676556
-4.2938533	kran,	-0.102676556
-4.2938533	Dik	-0.102676556
-4.2938533	Lavanse.	-0.102676556
-4.2938533	koutkat	-0.102676556
-4.1084504	nèg,	-0.102676556
-4.2938533	bonnanj	-0.102676556
-4.2938533	ankre	-0.102676556
-4.2938533	Konbat	-0.102676556
-4.2938533	kwoke	-0.102676556
-4.2938533	gojèt	-0.102676556
-4.2938533	trese	-0.102676556
-4.1084504	kouwòn	-0.102676556
-4.2938533	pikan,	-0.102676556
-4.2938533	Iben,	-0.102676556
-4.2938533	kanmarad	-0.102676556
-4.2938533	Estakis,	-0.102676556
-4.2938533	Etyèn,	-0.102676556
-4.2938533	lapriyè,	-0.102676556
-3.9911597	sere	-0.102676556
-4.2938533	konpliman.	-0.102676556
-3.9911597	lontan,	-0.102676556
-4.2938533	rekèt	-0.102676556
-4.1084504	avoka	-0.102676556
-4.2938533	Clod	-0.102676556
-4.2938533	Nò,	-0.102676556
-4.2938533	Ive	-0.102676556
-4.2938533	Ekszime	-0.102676556
-4.1084504	Aman	-0.102676556
-4.2938533	Polika.	-0.102676556
-4.2938533	natal,	-0.102676556
-4.1084504	laba	-0.102676556
-4.2938533	naje	-0.102676556
-4.2938533	zwazo.	-0.102676556
-4.2938533	charite.	-0.102676556
-4.1084504	souf	-0.102676556
-4.2938533	Bòs	-0.102676556
-4.2938533	èstati	-0.102676556
-4.1084504	ankouraje	-0.102676556
-4.2938533	frè.	-0.102676556
-3.8436186	katye	-0.102676556
-4.2938533	chada	-0.102676556
-4.1084504	Konasa	-0.102676556
-4.2938533	pyèj	-0.102676556
-4.2938533	Gemarya,	-0.102676556
-4.2938533	Chafan	-0.102676556
-4.1084504	lalwa.	-0.23511535
-4.1084504	Sendika	-0.102676556
-4.1084504	chofè	-0.102676556
-4.2938533	grèv,	-0.102676556
-4.1084504	madi	-0.102676556
-4.1084504	26	-0.102676556
-4.1084504	leta	-0.102676556
-4.2938533	sibvansyone	-0.102676556
-4.2938533	gaz	-0.102676556
-4.2938533	kouto	-0.102676556
-4.2938533	file,	-0.102676556
-4.2938533	razwa	-0.102676556
-4.2938533	kwafè,	-0.102676556
-4.2938533	bab	-0.102676556
-4.2938533	Seza,	-0.102676556
-3.9911597	eritaj	-0.102676556
-4.1084504	andeyò	-0.23511535
-4.2938533	Alòske	-0.102676556
-4.1084504	Gaston	-0.1863423
-4.1084504	finanse	-0.102676556
-3.9911597	sèten	-0.102676556
-4.2938533	atoufè.	-0.102676556
-4.2938533	annwiyan,	-0.102676556
-4.2938533	satisfè.	-0.102676556
-4.2938533	Akòz	-0.102676556
-4.2938533	bwote.	-0.102676556
-3.9911597	lafwa	-0.102676556
-4.2938533	blanch	-0.102676556
-4.1084504	notab	-0.102676556
-4.2938533	sèvis.	-0.102676556
-4.2938533	laras	-0.102676556
-4.1084504	Agag,	-0.102676556
-4.1084504	farin.	-0.23511535
-4.2938533	sansib	-0.102676556
-4.2938533	omnipotan,	-0.102676556
-4.2938533	kreyatè	-0.102676556
-4.2938533	lòm,	-0.102676556
-4.1084504	konfese	-0.102676556
-4.2938533	komèt.	-0.102676556
-4.2938533	Lèfini	-0.102676556
-4.1084504	divòse	-0.102676556
-4.2938533	Charayim	-0.102676556
-4.2938533	Ouchim	-0.102676556
-4.2938533	Bara.	-0.102676556
-4.1084504	kwiv,	-0.102676556
-4.1084504	pasan	-0.102676556
-4.2938533	tant.	-0.102676556
-3.9911597	konsyans	-0.1863423
-4.1084504	kanpe,	-0.102676556
-4.2938533	Betani,	-0.102676556
-4.2938533	mentou	-0.102676556
-4.2938533	Laza	-0.102676556
-4.2938533	debòch	-0.102676556
-4.2938533	lajounen.	-0.102676556
-4.2938533	Lafon	-0.102676556
-4.2938533	Godonn	-0.102676556
-4.2938533	ouvè	-0.102676556
-4.2938533	fèmen.	-0.102676556
-4.2938533	isit.	-0.102676556
-3.9911597	Minis	-0.102676556
-4.2938533	Sante	-0.102676556
-4.2938533	Piblik	-0.102676556
-4.2938533	Wodòl	-0.102676556
-4.2938533	Malbranch,	-0.102676556
-4.2938533	komisyon	-0.102676556
-4.2938533	remanbre	-0.102676556
-4.1084504	lopital	-0.102676556
-3.9911597	Ezaou	-0.102676556
-4.2938533	Elifaz,	-0.102676556
-4.1084504	tach	-0.102676556
-3.9911597	egzamine	-0.102676556
-4.2938533	Nil,	-0.102676556
-4.2938533	Elimelèk	-0.102676556
-4.2938533	Naomi	-0.102676556
-4.2938533	Kwen	-0.102676556
-4.1084504	nòmal.	-0.23511535
-4.2938533	mobilizasyon	-0.102676556
-4.2938533	28	-0.102676556
-4.2938533	Jiyè	-0.102676556
-4.2938533	sekirite	-0.102676556
-4.2938533	gad.	-0.102676556
-4.2938533	33,666	-0.102676556
-4.1084504	chèk	-0.102676556
-4.2938533	Nòdwès.	-0.102676556
-4.2938533	Madanm	-0.102676556
-3.9911597	200	-0.102676556
-4.2938533	Zekarya	-0.102676556
-4.1084504	Èske	-0.15091968
-4.1084504	volontè	-0.102676556
-4.2938533	kòmanse.	-0.102676556
-4.2938533	pinisyon	-0.102676556
-4.1084504	vre.	-0.23511535
-3.7336912	chèf,	-0.102676556
-4.2938533	ansasen	-0.102676556
-4.2938533	Koze	-0.102676556
-4.2938533	zòrey,	-0.102676556
-4.2938533	telefòn	-0.102676556
-4.2938533	elve	-0.102676556
-4.2938533	prepare	-0.102676556
-4.2938533	anseye	-0.102676556
-4.2938533	kòmès.	-0.102676556
-4.2938533	Monche	-0.102676556
-4.2938533	palavire	-0.102676556
-4.1084504	papye	-0.102676556
-4.1084504	rèv	-0.23511535
-3.9911597	pèseptè	-0.1863423
-4.2938533	kontribisyon.	-0.102676556
-4.2938533	Tèye	-0.102676556
-4.2938533	Wouj,	-0.102676556
-4.1084504	midi,	-0.102676556
-3.8436186	elektoral	-0.102676556
-4.2938533	obligasyon	-0.102676556
-3.9911597	grap	-0.1863423
-4.2938533	Jodi	-0.102676556
-4.2938533	kontante	-0.102676556
-4.2938533	kowonpi	-0.102676556
-4.2938533	kòd.	-0.102676556
-4.2938533	Berekya	-0.102676556
-4.2938533	Mechezabeyèl	-0.102676556
-4.2938533	koupab,	-0.102676556
-4.2938533	Mache,	-0.102676556
-4.2938533	dyòb	-0.102676556
-4.1084504	demoute	-0.102676556
-4.1084504	kabwa	-0.102676556
-4.2938533	soulye	-0.102676556
-3.9911597	Jonadab,	-0.1863423
-4.2938533	Rekab,	-0.102676556
-4.2938533	Ankouraje	-0.102676556
-4.2938533	souveren	-0.102676556
-4.2938533	ekziste.	-0.102676556
-3.8436186	ale,	-0.102676556
-4.2938533	nòmal	-0.102676556
-4.2938533	Ram,	-0.102676556
-4.2938533	Jerakmeyèl	-0.102676556
-4.2938533	Maz,	-0.102676556
-4.2938533	Jamen	-0.102676556
-4.2938533	Ekè.	-0.102676556
-4.2938533	bonè,	-0.102676556
-4.2938533	Balaram	-0.102676556
-3.9911597	leve,	-0.30883875
-4.2938533	sele	-0.102676556
-4.2938533	pasdwa	-0.102676556
-4.1084504	yo!	-0.23511535
